svm_type c_svc
kernel_type rbf
gamma 0.01
nr_class 3
total_sv 257
rho 0.0708572 2.21474 2.344
label 1 2 3
probA -6.32888 -6.01001 -5.92756
probB -0.0722673 -0.28263 0.193495
nr_sv 78 88 91
SV
0.8575955833036838 1 1:-0.849147 2:-0.928562 3:-0.967928 4:-0.218045 5:0.226633 6:-0.427251 7:-0.865663 8:-0.708901 9:-0.776471 10:-0.818768 11:-0.95935 12:-0.92876 13:-0.0996626 14:0.53102 15:0.24997 16:0.421427 17:0.525725 18:0.173984 19:-0.398896 20:-0.073639 21:-0.111186 22:0.150183 23:0.0857513 24:-0.0739284 25:-0.223907 26:0.0283965 27:-0.103484 28:-0.446539 29:-0.0790872 30:-0.0491362 31:-0.0511958 32:0.112659 33:0.192202 34:0.159717 35:0.241309 36:0.269209 37:0.158976 38:0.20115 39:0.0777163 40:0.015735 41:0.11556 42:-0.338539 43:-0.166168 44:-0.281033 45:0.0289923 46:0.182585 47:0.304541 48:0.252279 49:-0.139918 50:0.0862333 51:-0.858665 52:-0.289842 53:-0.112429 54:-0.159723 55:-0.0780219 56:-0.0264915 57:-0.0603541 58:-0.31245 59:0.0954795 60:0.130096 61:-0.0371426 62:-0.134565 63:0.0494995 64:0.0601874 65:0.226733 66:-0.256788 67:0.152712 68:0.1309 69:-0.027342 70:0.126436 71:0.237889 72:0.265616 73:0.0267357 74:0.177089 75:-0.184134 76:0.349037 77:0.0934179 78:0.109523 79:-0.0132006 80:0.0760195 81:0.000803373 82:-0.323652 83:-0.344759 84:-0.0896757 85:0.126964 86:0.166436 87:-0.0294961 88:-0.360069 89:0.0824516 90:-0.193061 91:-0.000882898 92:-0.31098 93:0.0124806 94:0.0516228 95:-0.181482 96:-0.197954 97:0.217986 98:0.0946034 99:0.10378 100:-0.0194854 101:-0.0671235 102:-0.0131561 103:-0.447534 104:0.208967 105:0.0993319 106:0.155579 107:0.409989 108:0.134835 
1 1 1:-0.840035 2:-0.937255 3:-0.948661 4:-0.188767 5:0.0627513 6:-0.351834 7:-0.875643 8:-0.67841 9:-0.761556 10:-0.918031 11:-0.952591 12:-0.900118 13:-0.103588 14:0.514585 15:0.249822 16:0.437904 17:0.530855 18:0.107614 19:-0.00852801 20:-0.107119 21:0.122057 22:0.129605 23:0.169981 24:-0.23229 25:-0.134904 26:-0.0864995 27:0.199961 28:0.011488 29:-0.0528375 30:0.128158 31:-0.0226967 32:-0.0902298 33:0.218575 34:0.0996334 35:-0.0881752 36:0.283177 37:0.330014 38:0.33139 39:0.203856 40:-0.275007 41:0.00851868 42:0.0225728 43:0.106751 44:-0.248366 45:0.0255368 46:-0.0314243 47:0.21265 48:0.269556 49:-0.0202946 50:-0.189442 51:-0.392258 52:-0.120219 53:-0.435417 54:-0.139476 55:-0.195974 56:0.0279642 57:0.0618141 58:-0.257881 59:-0.178777 60:0.111825 61:0.0496954 62:-0.367433 63:-0.0759054 64:-0.377701 65:-0.267527 66:-0.145631 67:0.128754 68:0.285725 69:-0.0432876 70:0.0686952 71:-0.316997 72:0.193213 73:0.23994 74:0.397666 75:-0.0273576 76:0.431473 77:0.207676 78:0.181438 79:0.153366 80:0.00389544 81:-0.104662 82:-0.325338 83:0.211018 84:-0.00666057 85:0.157894 86:0.165511 87:0.0688701 88:0.0369069 89:0.246669 90:-0.263802 91:-0.178058 92:-0.218738 93:-0.103652 94:0.226074 95:-0.0970432 96:-0.0551573 97:0.00686123 98:0.321472 99:0.156826 100:0.0931035 101:0.23867 102:-0.026513 103:-0.253196 104:0.117454 105:0.0272299 106:0.098335 107:0.249974 108:0.204332 
0 1 1:-0.877275 2:-0.951287 3:-0.971363 4:-0.139557 5:0.115283 6:-0.399044 7:-0.905681 8:-0.786124 9:-0.873273 10:-0.84456 11:-0.944121 12:-0.888502 13:-0.104629 14:0.518084 15:0.249395 16:0.40761 17:0.322391 18:0.00773064 19:-0.0813237 20:-0.0837879 21:0.0541047 22:0.213334 23:0.128636 24:0.080626 25:0.00483384 26:-0.220955 27:-0.37117 28:-0.116673 29:0.128746 30:0.307106 31:0.299173 32:0.164898 33:0.113913 34:0.188988 35:0.313337 36:0.307897 37:0.170932 38:0.314658 39:0.259501 40:0.187229 41:0.204088 42:-0.144318 43:0.243677 44:0.1058 45:0.188146 46:0.0347477 47:0.217346 48:0.0207319 49:-0.0944783 50:0.249004 51:-0.416389 52:-0.383438 53:-0.0757958 54:-0.679734 55:-0.171327 56:-0.2072 57:0.0047902 58:-0.286744 59:-0.144813 60:-0.17094 61:0.0245508 62:-0.103865 63:0.155327 64:0.122106 65:0.210799 66:0.202962 67:0.186113 68:0.0136256 69:0.13189 70:0.239323 71:0.234831 72:0.158457 73:0.121678 74:0.477935 75:0.164351 76:0.191169 77:0.0748869 78:0.0963115 79:-0.194617 80:0.113244 81:-0.131282 82:-0.138601 83:-0.541703 84:0.113001 85:0.0209586 86:0.199353 87:-0.150034 88:0.0930371 89:0.205347 90:-0.386486 91:-0.173816 92:-0.305649 93:-0.320694 94:0.0677204 95:-0.0687219 96:0.153708 97:0.251972 98:0.282334 99:0.18041 100:-0.0481288 101:-0.266146 102:0.162302 103:-0.0246869 104:0.141606 105:0.0679829 106:-0.234502 107:0.0902918 108:-0.170827 
1 1 1:-0.877061 2:-0.955223 3:-0.964203 4:-0.191378 5:0.19989 6:-0.423969 7:-0.938839 8:-0.687395 9:-0.760588 10:-0.868371 11:-0.957479 12:-0.92062 13:-0.10372 14:0.515829 15:0.249007 16:0.406251 17:0.338256 18:-0.0926217 19:-0.0566879 20:0.0997781 21:-0.252004 22:0.28198 23:0.164885 24:-0.215586 25:-0.389383 26:-0.166583 27:0.0612456 28:0.145204 29:0.0954108 30:0.250199 31:0.103807 32:-0.0722863 33:-0.0875178 34:0.108412 35:0.0714853 36:0.0573825 37:0.294083 38:0.457867 39:0.156386 40:-0.718667 41:0.0696686 42:-0.0121875 43:0.259288 44:0.172345 45:0.192892 46:0.157727 47:0.211284 48:0.0105602 49:-0.157664 50:0.144097 51:-0.248589 52:-0.336852 53:-0.187668 54:-0.302786 55:-0.147972 56:-0.16145 57:-0.0849688 58:0.0475408 59:-0.129768 60:-0.0900471 61:0.0195919 62:-0.0468839 63:0.0178586 64:0.0910136 65:0.16983 66:-0.188298 67:0.0938968 68:0.245681 69:0.201054 70:0.170139 71:-0.0785323 72:0.0208455 73:0.172756 74:0.518476 75:0.250293 76:0.507066 77:-0.00825559 78:0.1241 79:-0.0751128 80:0.143145 81:0.105453 82:-0.00517752 83:0.180439 84:0.0212422 85:-0.060349 86:0.172285 87:-0.149962 88:-0.0284888 89:0.318582 90:-0.0952426 91:-0.275277 92:-0.086562 93:-0.315841 94:-0.266796 95:-0.300781 96:-0.119983 97:-0.0155423 98:0.0818639 99:0.0468444 100:-0.308171 101:0.0581472 102:-0.0805243 103:-0.152234 104:0.262302 105:0.158145 106:0.108079 107:0.0490495 108:0.00384638 
0 1 1:-0.856996 2:-0.95553 3:-0.980683 4:-0.251245 5:0.178853 6:-0.559797 7:-0.933717 8:-0.787831 9:-0.612871 10:-0.888161 11:-0.955513 12:-0.941851 13:-0.110668 14:0.520395 15:0.247011 16:0.440034 17:0.398879 18:-0.0855219 19:-0.252472 20:-0.200495 21:-0.385956 22:-0.157915 23:-0.153882 24:-0.0834612 25:-0.330808 26:0.031045 27:-0.0316759 28:0.0264217 29:0.0362573 30:0.151575 31:0.142044 32:0.0256689 33:-0.0215045 34:0.17812 35:-0.0235286 36:0.187448 37:0.117702 38:0.266117 39:0.146541 40:-0.202803 41:-0.0365438 42:-0.223139 43:0.146881 44:0.223912 45:0.340905 46:0.201358 47:0.222001 48:0.0402527 49:-0.280443 50:0.125655 51:-0.418646 52:-0.201213 53:-0.58521 54:-0.306956 55:-0.14017 56:-0.145893 57:-0.181322 58:-0.169056 59:-0.15608 60:-0.0812258 61:0.0774493 62:-0.0281142 63:0.180271 64:0.117221 65:0.261872 66:0.0042903 67:-0.0197673 68:0.242865 69:0.105667 70:0.19477 71:0.048786 72:0.0513436 73:0.0505206 74:0.359062 75:0.235484 76:0.555866 77:0.0980306 78:-0.0607503 79:-0.176948 80:0.0129681 81:-0.0498212 82:-0.15921 83:0.0257635 84:-0.121864 85:-0.0333837 86:0.0263682 87:-0.275409 88:-0.318984 89:0.0447191 90:-0.333792 91:-0.418235 92:-0.109226 93:-0.260236 94:0.0705926 95:-0.486783 96:-0.144039 97:-0.236067 98:0.063191 99:-1 100:-0.0650033 101:-0.12429 102:-0.0751414 103:-0.389445 104:0.12702 105:-0.0248483 106:-0.0532842 107:0.182075 108:0.299308 
1 1 1:-0.852423 2:-0.949119 3:-0.970513 4:-0.24398 5:0.158873 6:-0.348655 7:-0.9074 8:-0.709894 9:-0.742077 10:-0.868462 11:-0.959566 12:-0.932414 13:-0.107384 14:0.517386 15:0.247202 16:0.439931 17:0.443276 18:-0.0475411 19:-0.119984 20:-0.126143 21:-0.0325377 22:0.161762 23:0.112864 24:0.0548013 25:-0.0671877 26:-0.0859812 27:-0.00484794 28:-0.0738265 29:0.148703 30:0.0789907 31:-0.134992 32:0.0767413 33:0.178887 34:-0.0363894 35:0.252564 36:0.208775 37:0.052542 38:0.221059 39:0.354657 40:0.308017 41:0.151756 42:-0.264581 43:0.22564 44:0.127831 45:0.216524 46:0.152112 47:0.229918 48:0.100389 49:-0.271362 50:0.196943 51:-0.262127 52:-0.167767 53:-0.148237 54:-0.440084 55:-0.0663786 56:-0.185071 57:-0.0207958 58:-0.157095 59:-0.267019 60:0.114152 61:0.156667 62:0.0416641 63:-0.0619913 64:-0.0126445 65:0.131977 66:0.0612021 67:0.232061 68:0.060107 69:-0.000389347 70:0.294425 71:0.365689 72:0.292864 73:0.0312813 74:0.35861 75:0.141636 76:0.50815 77:0.208036 78:0.103097 79:-0.0247514 80:-0.053881 81:-0.0823004 82:-0.0596219 83:-0.102133 84:0.0229267 85:-0.214538 86:0.106652 87:-0.120627 88:0.0055214 89:0.207002 90:-0.654393 91:0.0265228 92:-0.0209733 93:-0.159764 94:0.0752667 95:-0.392022 96:-0.0126241 97:0.0700756 98:-0.162829 99:-0.0108687 100:-0.362894 101:0.142276 102:0.120023 103:0.0651257 104:0.203366 105:0.051981 106:0.022533 107:0.139181 108:-0.0083462 
1 1 1:-0.869574 2:-0.937513 3:-0.966122 4:-0.231115 5:0.333625 6:-0.132239 7:-0.923355 8:-0.782995 9:-0.825314 10:-0.769804 11:-0.981002 12:-0.942756 13:-0.103814 14:0.517718 15:0.251026 16:0.419037 17:0.375809 18:-0.188079 19:-0.149108 20:-0.129109 21:-0.0927619 22:0.0271525 23:0.0527803 24:-0.0746357 25:0.03251 26:0.109465 27:0.151482 28:-0.0416447 29:0.150744 30:0.0230529 31:0.0571338 32:0.0878912 33:0.0132522 34:0.0320922 35:0.303317 36:0.406349 37:0.105554 38:0.379096 39:0.257113 40:-0.0648266 41:-0.0595836 42:0.080975 43:0.384945 44:0.23587 45:0.184284 46:0.24594 47:0.260879 48:0.148181 49:-0.0776051 50:0.131794 51:0.0443893 52:-0.290559 53:-0.720705 54:-0.334271 55:-0.224128 56:-0.338551 57:-0.287822 58:-0.30718 59:-0.156034 60:0.098689 61:0.272785 62:-0.194945 63:-0.157224 64:-0.0973569 65:-0.048695 66:0.0612757 67:0.295624 68:-0.0682658 69:0.103724 70:0.316778 71:0.297841 72:-0.0566151 73:0.303114 74:0.513338 75:0.193154 76:0.54237 77:0.332607 78:0.12431 79:-0.0727961 80:0.130275 81:-0.0225609 82:0.169059 83:-0.154405 84:-0.00962847 85:-0.089576 86:-0.128315 87:-0.141212 88:-0.0457177 89:-0.186324 90:-0.16086 91:0.0747305 92:-0.144364 93:-0.529374 94:-0.128572 95:-0.28061 96:-0.236238 97:0.043184 98:0.306771 99:-0.0170733 100:-0.229085 101:-0.0249454 102:-0.311581 103:-0.0150847 104:0.129938 105:0.249357 106:0.117701 107:0.147062 108:0.096308 
1 0 1:-0.859135 2:-0.961836 3:-0.961454 4:-0.227197 5:0.350834 6:-0.231412 7:-0.919486 8:-0.53957 9:-0.844524 10:-0.731611 11:-0.942826 12:-0.991137 13:-0.1051 14:0.515442 15:0.247157 16:0.43143 17:0.404054 18:-0.157058 19:-0.126957 20:-0.0386815 21:0.0152603 22:0.173832 23:0.187027 24:0.0088286 25:-0.194989 26:0.0923092 27:0.108166 28:0.224777 29:0.144627 30:0.374271 31:0.292493 32:-0.144597 33:0.36727 34:0.122893 35:0.145479 36:0.401497 37:0.499464 38:0.384478 39:0.307466 40:0.366373 41:0.321349 42:0.286085 43:0.417081 44:0.23978 45:0.148777 46:0.0960459 47:0.0999362 48:-0.21563 49:-0.040001 50:0.0587532 51:-0.176761 52:-0.233199 53:-0.723718 54:-0.56858 55:-0.122995 56:-0.0558733 57:-0.109571 58:-0.0824841 59:0.0465747 60:0.0995288 61:-0.0358704 62:-0.354112 63:-0.0689846 64:0.0816494 65:-0.0281475 66:-0.0259591 67:0.24183 68:0.415413 69:0.130403 70:0.204151 71:0.370522 72:0.446069 73:0.448586 74:0.638859 75:0.286661 76:0.436858 77:-0.681508 78:-0.0121421 79:0.0114455 80:0.220025 81:0.0634242 82:0.133609 83:-0.00310868 84:-0.637567 85:0.0315225 86:-0.399452 87:-0.0502419 88:-0.142699 89:0.0891094 90:0.157224 91:0.193735 92:-0.388133 93:-0.156198 94:0.0602217 95:-0.212216 96:0.0736491 97:-0.0192803 98:0.179118 99:0.127067 100:-0.0348174 101:0.203501 102:0.146591 103:-0.0184629 104:0.260955 105:0.230369 106:-0.0885832 107:-0.114293 108:-0.115699 
0 1 1:-0.862744 2:-0.956015 3:-0.968849 4:-0.186899 5:-0.0303061 6:-0.439312 7:-0.926815 8:-0.687104 9:-0.799812 10:-0.852762 11:-0.943935 12:-0.897913 13:-0.109259 14:0.515657 15:0.248768 16:0.432795 17:0.363062 18:-0.228036 19:-0.451087 20:-0.432923 21:-0.178236 22:-0.0806822 23:-0.22498 24:0.15091 25:-0.264718 26:0.0324918 27:0.0442074 28:-0.199519 29:0.202264 30:0.0633321 31:0.31958 32:0.27027 33:-0.0268283 34:0.315637 35:0.41013 36:-0.199397 37:0.346667 38:0.442988 39:0.364387 40:0.255228 41:0.162744 42:0.0704217 43:0.370731 44:0.237973 45:0.16042 46:-0.49306 47:0.138392 48:0.0767703 49:-0.177035 50:0.205533 51:-0.205708 52:-0.298787 53:-0.172927 54:-0.363804 55:-0.0633921 56:-0.101558 57:-0.115297 58:-0.114422 59:-0.202285 60:0.119665 61:0.114615 62:-0.0856661 63:0.155512 64:-0.142986 65:0.32104 66:0.26609 67:0.11715 68:0.0728513 69:0.220886 70:0.247398 71:0.225483 72:-0.0702846 73:0.148977 74:0.576514 75:0.277508 76:0.568034 77:0.319622 78:0.0692056 79:-0.0374524 80:0.0638067 81:0.0380122 82:-0.00324116 83:-0.222755 84:-0.0204573 85:-0.0255947 86:0.15086 87:0.0126395 88:0.00421252 89:0.129513 90:-0.202522 91:0.0513373 92:0.0342211 93:0.0529697 94:0.151877 95:-0.127909 96:0.0587993 97:0.263438 98:0.16113 99:0.148318 100:-0.0861219 101:0.237992 102:0.218132 103:-0.0169441 104:0.0735674 105:-0.365781 106:-0.188215 107:0.136038 108:-0.037429 
1 0 1:-0.876023 2:-0.95797 3:-0.97409 4:-0.243031 5:0.124641 6:-0.419832 7:-0.918642 8:-0.743019 9:-0.838774 10:-0.897051 11:-0.915699 12:-0.908761 13:-0.1037 14:0.515949 15:0.245728 16:0.409799 17:0.325174 18:-0.206027 19:-0.30071 20:-0.310245 21:-0.217001 22:0.0983455 23:0.211467 24:-0.093363 25:-0.103058 26:-0.204847 27:0.245837 28:0.114635 29:0.235226 30:0.204729 31:-0.0279479 32:0.207992 33:-0.0417652 34:-0.438137 35:0.361815 36:0.434628 37:0.120396 38:0.593806 39:0.53021 40:0.387829 41:0.452783 42:0.258282 43:0.121575 44:-0.0362948 45:0.0633717 46:0.141431 47:0.111914 48:0.0049843 49:-0.0410192 50:0.0773965 51:-0.228191 52:-0.118418 53:-0.303082 54:-0.608742 55:-0.176296 56:-0.0734154 57:0.0112636 58:-0.098377 59:-0.108149 60:0.176119 61:0.116847 62:-0.143003 63:-0.0692151 64:-0.0472205 65:0.0689296 66:0.0724416 67:0.329287 68:-0.154474 69:0.306409 70:0.494079 71:0.445506 72:0.52873 73:0.448669 74:0.438529 75:-0.137039 76:0.372061 77:-0.0942577 78:-0.0507395 79:-0.0479017 80:-0.0389473 81:0.0611892 82:-0.092391 83:-0.111723 84:-0.157731 85:-0.127658 86:-0.150795 87:-0.0499317 88:-0.196432 89:0.299149 90:-0.00571087 91:0.0518541 92:-0.141654 93:0.00119738 94:-0.0369881 95:-0.174017 96:-0.30287 97:0.171924 98:0.0199352 99:0.139585 100:0.107139 101:0.262622 102:0.125096 103:0.0249708 104:0.246263 105:-0.196307 106:-0.171352 107:-0.173294 108:-0.0858037 
1 1 1:-0.862002 2:-0.948025 3:-0.963462 4:-0.312598 5:0.135153 6:-0.210737 7:-0.872186 8:-0.578749 9:-0.793503 10:-0.710491 11:-0.932407 12:-0.95637 13:-0.0987257 14:0.517216 15:0.249176 16:0.417005 17:0.4528 18:-0.102735 19:-0.0716513 20:-0.182199 21:0.142983 22:-0.0282172 23:0.193413 24:0.0756935 25:0.101761 26:0.0790778 27:0.308888 28:-0.214652 29:0.295179 30:0.269592 31:-0.00372509 32:0.339502 33:0.418814 34:0.067809 35:0.307484 36:0.414232 37:0.387103 38:0.392224 39:-0.0153453 40:0.153938 41:0.39321 42:0.285115 43:0.202346 44:-0.00356268 45:0.0189854 46:0.174461 47:0.101635 48:0.17673 49:0.0568046 50:-0.173929 51:-0.116153 52:-0.397602 53:-0.112189 54:-0.619888 55:0.0781122 56:-0.27849 57:-0.0885644 58:-0.150422 59:-0.0327568 60:0.0833798 61:0.0393234 62:-0.114768 63:-0.0266166 64:-0.080605 65:0.0514711 66:0.257885 67:0.375922 68:0.19018 69:-0.212622 70:0.0692534 71:0.344514 72:0.543524 73:0.455379 74:0.516136 75:0.134211 76:0.515206 77:0.108763 78:-0.0391882 79:0.0636268 80:0.0977292 81:-0.532153 82:0.0248807 83:0.0555228 84:-0.146014 85:0.0681944 86:0.270907 87:-0.392976 88:-0.0810368 89:0.27938 90:-0.0592811 91:-0.126305 92:-0.145376 93:0.0233394 94:0.265946 95:-0.0954249 96:0.00479817 97:0.294105 98:0.386892 99:0.244152 100:-0.0566892 101:-0.255437 102:-0.000109482 103:0.049931 104:0.286599 105:0.104592 106:0.0317889 107:0.3313 108:0.30556 
1 1 1:-0.858001 2:-0.940098 3:-0.971036 4:-0.261334 5:0.104585 6:-0.432972 7:-0.879177 8:-0.498625 9:-0.659223 10:-0.738468 11:-0.915892 12:-0.899736 13:-0.105577 14:0.516704 15:0.245934 16:0.432525 17:0.385662 18:0.118644 19:0.0107692 20:-0.0195113 21:0.0388473 22:0.108522 23:-0.306776 24:-0.0114178 25:-0.15712 26:0.0951173 27:-0.267188 28:0.289295 29:0.214867 30:0.287781 31:0.257901 32:-0.136964 33:0.390285 34:0.372078 35:0.0111193 36:0.460267 37:0.4573 38:0.420232 39:0.169129 40:0.25153 41:0.526646 42:0.430113 43:0.418056 44:0.192778 45:0.126414 46:0.181281 47:0.185432 48:0.15497 49:-0.303862 50:0.256414 51:-0.102254 52:-0.236405 53:-0.171147 54:-0.317162 55:-0.120662 56:-0.0505276 57:-0.0712256 58:-0.184385 59:-0.014084 60:0.00309004 61:0.312981 62:0.123709 63:-0.140583 64:0.326457 65:0.405653 66:-0.316852 67:0.361109 68:0.423916 69:0.159993 70:-0.199977 71:0.349023 72:0.580704 73:0.551627 74:0.667821 75:0.367282 76:0.625802 77:0.257823 78:0.0250045 79:-0.194758 80:-0.0403625 81:-0.0537052 82:0.0906274 83:0.0611171 84:0.060478 85:0.0469143 86:0.228578 87:-0.122649 88:-0.0396487 89:0.14654 90:0.0531149 91:0.103234 92:0.226012 93:-0.118946 94:0.084258 95:-0.116099 96:-0.301136 97:0.124578 98:0.257781 99:0.238506 100:0.073303 101:-0.363993 102:0.171662 103:0.240926 104:0.435881 105:0.226743 106:0.124538 107:0.263087 108:-0.0987945 
1 1 1:-0.873922 2:-0.952515 3:-0.964707 4:-0.244719 5:0.117742 6:-0.464721 7:-0.889382 8:-0.41188 9:-0.632456 10:-0.72044 11:-0.900107 12:-0.930668 13:-0.0999389 14:0.51431 15:0.246485 16:0.401765 17:0.409076 18:-0.289401 19:-0.186757 20:-0.451783 21:-0.118392 22:0.258179 23:0.269232 24:0.114735 25:0.0157918 26:-0.172273 27:0.27033 28:-0.113858 29:0.200176 30:0.372851 31:0.316228 32:0.232945 33:0.161958 34:0.144802 35:0.174048 36:0.39803 37:0.336958 38:0.375475 39:-0.188633 40:0.209352 41:0.476854 42:0.399553 43:0.457485 44:0.28529 45:0.103569 46:0.071497 47:0.137907 48:0.115182 49:-0.15719 50:0.0344682 51:-0.187247 52:-0.146596 53:-0.141271 54:-0.116271 55:-0.25249 56:0.0446954 57:-0.265374 58:-0.0738568 59:-0.0435178 60:-0.563849 61:0.0246676 62:0.0111852 63:-0.33037 64:0.236846 65:0.29279 66:-0.585819 67:0.322722 68:0.337818 69:0.24043 70:-0.0220167 71:0.274981 72:0.52407 73:0.497939 74:0.650081 75:0.315367 76:0.544676 77:0.0267332 78:0.0665134 79:-0.0766572 80:-0.299787 81:-0.577069 82:-0.0837817 83:0.096762 84:0.0712438 85:0.291813 86:0.0442315 87:0.0858639 88:-0.156208 89:0.388275 90:0.102959 91:-0.282104 92:-0.0218834 93:0.0598752 94:0.347397 95:0.161493 96:0.0136358 97:0.0534143 98:0.352246 99:0.268575 100:0.104525 101:0.209259 102:0.331908 103:0.290839 104:0.541371 105:0.461166 106:0.324833 107:0.29577 108:-0.389078 
1 0 1:-0.867778 2:-0.94483 3:-0.966642 4:-0.233774 5:0.217003 6:-0.264785 7:-0.928564 8:-0.734967 9:-0.876268 10:-0.740634 11:-0.961808 12:-0.8308 13:-0.107254 14:0.513754 15:0.248062 16:0.428259 17:0.2253 18:0.0480832 19:-0.25903 20:-0.288492 21:-0.152112 22:-0.0249249 23:0.0269468 24:-0.0087179 25:-0.0260098 26:-0.298053 27:0.295656 28:0.0607442 29:0.20164 30:0.198508 31:0.216706 32:0.238128 33:-0.102313 34:0.39373 35:0.354944 36:0.255759 37:0.516098 38:0.548766 39:0.0325981 40:0.274148 41:0.530863 42:0.470822 43:0.476949 44:0.289586 45:0.233089 46:0.247182 47:0.204649 48:0.0860077 49:-0.0174423 50:0.215194 51:-0.26234 52:-0.0792066 53:-0.292228 54:-0.229868 55:-0.236765 56:-0.456785 57:-0.21977 58:-0.456325 59:-0.0765082 60:0.000583389 61:0.0463657 62:0.00539444 63:0.340122 64:0.221699 65:0.327502 66:0.0845649 67:0.225252 68:0.513037 69:0.442168 70:0.247379 71:0.170154 72:0.491199 73:0.405047 74:0.574678 75:0.271337 76:0.561594 77:0.139885 78:-0.0282551 79:-0.18386 80:0.186441 81:0.0225186 82:-0.00462938 83:-0.31905 84:-0.0177988 85:0.218091 86:0.0403139 87:-0.348043 88:-0.131587 89:0.14585 90:-0.00101843 91:0.288607 92:0.264572 93:-0.455244 94:0.291594 95:-0.0633493 96:0.328321 97:0.254327 98:-0.102763 99:0.175761 100:0.0548858 101:0.214516 102:0.0691564 103:0.154009 104:0.499474 105:0.380552 106:-0.0166499 107:-0.308852 108:-0.0871317 
1 1 1:-0.872549 2:-0.947718 3:-0.96993 4:-0.222989 5:0.2671 6:-0.240052 7:-0.903565 8:-0.619132 9:-0.873548 10:-0.890001 11:-0.879072 12:-0.898654 13:-0.104399 14:0.518608 15:0.246562 16:0.410447 17:0.362083 18:0.0591605 19:-0.217718 20:-0.259776 21:-0.091786 22:0.149118 23:-0.00708583 24:0.0134166 25:0.0876115 26:-0.059302 27:0.196888 28:-0.232434 29:0.287411 30:0.226862 31:0.23817 32:0.290206 33:0.181532 34:0.30456 35:0.377974 36:0.292259 37:-0.139232 38:0.430734 39:0.509974 40:0.447525 41:0.478235 42:0.392848 43:0.311552 44:0.172102 45:0.224719 46:0.285605 47:0.172474 48:0.0219405 49:-0.352584 50:0.191567 51:-0.131444 52:-0.278885 53:-0.00040348 54:-0.149689 55:-0.403575 56:-0.191318 57:-0.12948 58:-0.0437319 59:0.0994905 60:0.305779 61:0.292003 62:-0.0203148 63:0.0815949 64:0.0944481 65:0.397758 66:0.316388 67:0.312039 68:0.289966 69:-0.465915 70:0.363228 71:0.542284 72:0.580275 73:0.453597 74:0.503386 75:0.30317 76:0.464943 77:0.292892 78:0.0741412 79:-0.290188 80:0.0498403 81:0.0264509 82:0.0275618 83:-0.0397085 84:-0.0279228 85:0.253567 86:0.161131 87:-0.14457 88:-0.374212 89:0.0336459 90:-0.0977521 91:0.258143 92:0.0985507 93:-0.0589312 94:0.316837 95:0.0549221 96:0.235255 97:0.334135 98:0.304328 99:-0.0672448 100:-0.273321 101:0.041061 102:0.167423 103:0.131908 104:0.327243 105:0.163764 106:0.0320178 107:0.119136 108:0.220141 
1 1 1:-0.862971 2:-0.949979 3:-0.971456 4:-0.235783 5:0.338899 6:-0.350757 7:-0.881789 8:-0.496826 9:-0.703617 10:-0.823354 11:-0.960719 12:-0.948514 13:-0.105835 14:0.517123 15:0.249105 16:0.423793 17:0.364798 18:0.147675 19:0.13956 20:-0.122822 21:0.1861 22:-0.0308618 23:0.118249 24:-0.102029 25:-0.0926135 26:0.0286243 27:-0.0658525 28:0.224154 29:-0.470155 30:0.34712 31:0.054691 32:0.303559 33:0.347619 34:-0.548067 35:0.419404 36:0.452116 37:0.0597613 38:0.432911 39:0.407971 40:0.418296 41:0.466991 42:0.149167 43:0.0574139 44:-0.088864 45:-0.0889458 46:0.109877 47:0.170379 48:0.0385464 49:-0.120186 50:0.147112 51:-0.16631 52:0.0530887 53:-0.178896 54:-0.0338613 55:-0.0864873 56:0.108662 57:0.175349 58:-0.338866 59:0.1875 60:0.096131 61:0.228518 62:-0.433745 63:0.207072 64:0.299066 65:0.178744 66:0.247051 67:0.294034 68:-0.122039 69:-0.0505133 70:0.342321 71:0.419362 72:0.508665 73:0.324664 74:0.290616 75:-0.113063 76:0.354713 77:0.333487 78:0.069076 79:-0.324403 80:0.142311 81:-0.0869878 82:0.0699769 83:0.0623226 84:-0.189175 85:0.0990119 86:-0.186509 87:0.063454 88:-0.0580143 89:0.266596 90:0.147228 91:0.0571586 92:-0.0385389 93:-0.218436 94:0.2677 95:-0.0543317 96:0.122664 97:0.197002 98:0.341902 99:-0.418847 100:-0.497637 101:-0.665545 102:0.0859802 103:-0.122157 104:-0.0728686 105:0.000334572 106:-0.0525135 107:0.265613 108:-0.0041784 
1 1 1:-0.86147 2:-0.955014 3:-0.97796 4:-0.263773 5:0.429541 6:-0.320026 7:-0.90462 8:-0.572036 9:-0.602228 10:-0.793628 11:-0.949106 12:-0.977235 13:-0.107937 14:0.516869 15:0.248672 16:0.433084 17:0.360686 18:0.0260642 19:-0.289807 20:-0.106792 21:-0.104172 22:-0.0880861 23:0.111536 24:0.183014 25:0.0925401 26:0.0156834 27:0.236479 28:0.194113 29:0.26007 30:0.124115 31:0.223425 32:-0.153871 33:0.189055 34:0.303376 35:-0.0361149 36:0.287948 37:0.219727 38:0.450001 39:0.303035 40:0.091472 41:0.372885 42:0.243773 43:0.35959 44:0.222248 45:0.266586 46:0.128051 47:0.197837 48:0.0558226 49:-0.243782 50:0.0337599 51:-0.340081 52:-0.0334866 53:-0.375 54:-0.248109 55:-0.372849 56:-0.271367 57:-0.0299659 58:0.103982 59:0.0881713 60:0.156201 61:0.198207 62:-0.0107419 63:0.155959 64:0.170049 65:0.188602 66:-0.4142 67:-0.0503837 68:-0.284231 69:0.0874557 70:0.222203 71:0.142574 72:0.403943 73:0.346329 74:0.483288 75:0.0616844 76:0.616824 77:0.344292 78:-0.233322 79:-0.359142 80:0.00484846 81:0.118108 82:-0.376052 83:0.100087 84:-0.307644 85:-0.126473 86:0.0537676 87:0.0637761 88:-0.284388 89:0.198171 90:0.0237854 91:0.121639 92:-0.213839 93:-0.131122 94:0.179618 95:-0.51084 96:0.139675 97:-0.0224527 98:0.0262493 99:-0.16921 100:-0.0801325 101:0.203553 102:-0.242765 103:-0.00878254 104:0.277895 105:0.293405 106:-0.0467372 107:-0.350297 108:-0.0174659 
0 1 1:-0.854378 2:-0.948289 3:-0.978832 4:-0.17155 5:0.209936 6:-0.368177 7:-0.893613 8:-0.67443 9:-0.808949 10:-0.739115 11:-0.954687 12:-0.96933 13:-0.103063 14:0.51612 15:0.250606 16:0.428043 17:0.475129 18:-0.0497409 19:0.0180221 20:-0.0309571 21:-0.172221 22:0.248145 23:0.0471291 24:-0.0886889 25:-0.46862 26:0.0214875 27:0.116967 28:-0.225253 29:0.318868 30:0.0796882 31:0.148292 32:0.0491473 33:0.0647749 34:0.252166 35:0.310123 36:0.323238 37:0.174343 38:0.404438 39:0.349795 40:0.105266 41:-0.0246937 42:-0.0936359 43:0.324168 44:0.232622 45:0.306784 46:0.149425 47:0.173725 48:0.152304 49:-0.0705725 50:0.17743 51:-0.358791 52:-0.037826 53:-0.0447863 54:-0.409585 55:-0.299456 56:-0.343917 57:-0.843148 58:-0.424892 59:-0.249151 60:-0.116056 61:-0.354936 62:-0.0487045 63:0.29115 64:-0.0503396 65:0.227626 66:0.180623 67:0.222555 68:0.022232 69:0.128327 70:0.257046 71:0.253505 72:-0.239246 73:0.216627 74:0.523146 75:0.323398 76:0.680408 77:0.446052 78:0.015931 79:-0.299352 80:-0.0546006 81:-0.288459 82:0.0665749 83:0.111235 84:0.0452317 85:-0.216963 86:-0.122334 87:-0.251973 88:-0.129761 89:0.0949047 90:-0.640267 91:-0.173622 92:-0.0669709 93:-0.0908866 94:0.279736 95:-0.379775 96:-0.16928 97:0.164627 98:-0.167585 99:-0.660194 100:-0.145958 101:-0.329827 102:-0.00878292 103:-0.16063 104:0.266702 105:0.18191 106:0.00895065 107:0.00513295 108:-0.0431509 
1 1 1:-0.86292 2:-0.949358 3:-0.96795 4:-0.236595 5:0.315414 6:0.0585306 7:-0.920337 8:-0.672609 9:-0.72794 10:-0.799744 11:-0.934925 12:-0.950149 13:-0.103657 14:0.515744 15:0.249209 16:0.427204 17:0.394779 18:0.0700814 19:-0.281127 20:-0.233214 21:-0.195121 22:-0.0704424 23:0.135567 24:-0.624131 25:-0.274172 26:-0.0192205 27:-0.121862 28:0.137978 29:0.119473 30:0.225208 31:0.149256 32:-0.00307286 33:0.16401 34:0.285872 35:0.257213 36:0.268726 37:0.34156 38:0.391576 39:0.152478 40:0.118296 41:0.426921 42:0.376789 43:0.414251 44:0.234705 45:0.0427943 46:0.317721 47:0.173803 48:0.016385 49:-0.014685 50:0.173612 51:-0.032173 52:-0.0850061 53:-0.415298 54:-0.12007 55:-0.225478 56:-0.0423988 57:-0.11146 58:-0.102157 59:0.100879 60:-0.217765 61:0.0818824 62:0.0949703 63:0.163618 64:0.215349 65:0.291317 66:0.04368 67:0.299934 68:0.331408 69:0.174073 70:0.102967 71:-0.119346 72:0.356792 73:0.464814 74:0.5495 75:0.127802 76:0.544884 77:0.33024 78:0.0756967 79:-0.178735 80:0.152089 81:-0.0316275 82:0.192521 83:0.0288789 84:-0.268328 85:0.198018 86:-0.122151 87:-0.0354252 88:-0.113704 89:0.169605 90:0.0228052 91:-0.144795 92:-0.140744 93:-0.228534 94:-0.305557 95:-0.0412171 96:-0.0992225 97:0.0409768 98:-0.18385 99:0.0743549 100:-0.291021 101:0.0104126 102:0.0257162 103:-0.14134 104:0.297372 105:0.211971 106:0.0639441 107:0.0884 108:-0.0198536 
1 1 1:-0.879025 2:-0.960124 3:-0.974905 4:-0.153678 5:0.164197 6:-0.337993 7:-0.930784 8:-0.719137 9:-0.707394 10:-0.767545 11:-0.951192 12:-0.94631 13:-0.105008 14:0.515166 15:0.248933 16:0.405446 17:0.268278 18:0.0634038 19:-0.137129 20:0.00339144 21:-0.174434 22:0.0983995 23:-0.193615 24:0.149883 25:0.111661 26:0.134566 27:0.17374 28:0.223382 29:0.17858 30:0.0764293 31:0.219897 32:0.174419 33:0.226975 34:0.420704 35:0.357834 36:0.298693 37:0.414732 38:0.52127 39:0.404974 40:0.366448 41:0.384317 42:-0.050323 43:-0.193931 44:-0.26635 45:-0.0731547 46:0.179508 47:0.13527 48:-0.190264 49:-0.0635716 50:0.119174 51:-0.303912 52:-0.171049 53:-0.0515131 54:-0.451316 55:-0.213325 56:-0.126379 57:-0.0601731 58:-0.0570014 59:-0.0141619 60:-0.258474 61:0.209488 62:-0.179716 63:0.133044 64:0.130132 65:0.410369 66:-0.0582854 67:0.160535 68:0.352999 69:0.311902 70:0.409304 71:0.388271 72:0.316017 73:0.0354131 74:0.265212 75:-0.0306036 76:0.496719 77:0.23168 78:-0.118417 79:-0.158728 80:0.163025 81:-0.127797 82:-0.405807 83:-0.204374 84:-0.00184204 85:0.0378789 86:0.0102177 87:-0.149258 88:0.0694015 89:0.229078 90:-0.15785 91:0.0029717 92:-0.180391 93:0.12039 94:0.227935 95:-0.159102 96:0.0736635 97:-0.0180384 98:0.0998925 99:0.0879612 100:0.0778947 101:0.151141 102:-0.0174138 103:0.00413401 104:-0.198591 105:0.156598 106:0.0863627 107:0.232166 108:0.1028 
0 1 1:-0.832699 2:-0.950947 3:-0.967901 4:-0.246125 5:0.261194 6:-0.294919 7:-0.899519 8:-0.743625 9:-0.854518 10:-0.894007 11:-0.938985 12:-0.901947 13:-0.102483 14:0.515972 15:0.251069 16:0.449596 17:0.541849 18:-0.323743 19:-0.0520627 20:-0.000459521 21:0.00365691 22:0.0494573 23:-0.0192975 24:-0.169589 25:-0.222996 26:-0.067578 27:-0.134149 28:-0.0335446 29:-0.0164578 30:0.292947 31:0.284434 32:0.180873 33:0.320026 34:0.400861 35:0.174987 36:0.287587 37:0.369413 38:0.329815 39:0.200436 40:0.163512 41:0.285953 42:-0.140675 43:0.163607 44:0.286206 45:0.197895 46:0.0418023 47:0.183827 48:0.0897351 49:-0.107962 50:0.223292 51:-0.223499 52:-0.0232387 53:-0.577103 54:-0.305672 55:-0.209291 56:-0.55304 57:-0.0623933 58:-0.136431 59:0.0149797 60:-0.0824374 61:0.0825574 62:0.0993437 63:-0.0698999 64:-0.0450968 65:0.26272 66:-0.280328 67:0.196056 68:0.253344 69:0.0988555 70:0.102231 71:0.0650659 72:0.0016575 73:0.0418114 74:0.534874 75:0.412774 76:0.672875 77:0.353637 78:0.0380864 79:-0.207162 80:0.198058 81:0.11896 82:-0.00869275 83:0.15647 84:-0.337764 85:0.0781379 86:-0.0510473 87:-0.121218 88:-0.0872298 89:0.112044 90:-0.566245 91:-0.486347 92:-0.0770847 93:-0.0687256 94:0.175289 95:-0.235027 96:0.00898935 97:-0.0179462 98:0.101667 99:-0.218264 100:-0.154163 101:0.0368074 102:-0.0358433 103:-0.063323 104:0.268916 105:0.11388 106:0.274059 107:0.32528 108:0.0661515 
1 0 1:-0.872251 2:-0.953005 3:-0.975375 4:-0.256884 5:0.124183 6:-0.284064 7:-0.921592 8:-0.556036 9:-0.830779 10:-0.79987 11:-0.923312 12:-0.982281 13:-0.106572 14:0.512547 15:0.248861 16:0.416278 17:0.283769 18:0.0731414 19:0.0448456 20:0.029508 21:-0.139221 22:0.0451936 23:-0.0227002 24:-0.547044 25:-0.125775 26:0.0639839 27:0.283331 28:0.220431 29:0.339344 30:0.131528 31:0.309892 32:0.119533 33:0.235069 34:0.342705 35:0.306619 36:0.15936 37:0.405817 38:0.573795 39:0.462404 40:0.295075 41:0.382849 42:0.119034 43:0.174992 44:-0.23462 45:0.205411 46:0.00089572 47:0.134592 48:0.0721441 49:-0.150448 50:0.207096 51:-0.195565 52:0.00536959 53:-0.324666 54:-0.230807 55:-0.0804876 56:-0.461333 57:-0.183892 58:-0.177554 59:0.140172 60:0.0364009 61:0.149742 62:0.122876 63:0.260655 64:-0.0343307 65:0.407815 66:0.0303193 67:0.0965064 68:0.280967 69:0.366726 70:0.424185 71:0.472785 72:0.431074 73:0.256767 74:0.474822 75:-0.131167 76:0.456155 77:0.0398981 78:-0.1844 79:-0.243488 80:0.146509 81:0.0401988 82:0.0154134 83:-0.176585 84:-0.454005 85:0.0919223 86:0.14651 87:-0.106156 88:-0.538572 89:0.182138 90:-0.0446546 91:-0.0402975 92:0.0248532 93:0.15379 94:0.243271 95:-0.183713 96:0.0617042 97:0.148986 98:0.129501 99:0.184458 100:0.0718401 101:0.0548381 102:-0.0338179 103:-0.0889787 104:0.162487 105:-0.32202 106:-0.314646 107:0.00471393 108:-0.31973 
0 1 1:-0.872459 2:-0.946205 3:-0.962956 4:-0.156598 5:0.622862 6:-0.234997 7:-0.921128 8:-0.377891 9:-0.728323 10:-0.770933 11:-0.954664 12:-0.957813 13:-0.106993 14:0.516553 15:0.250659 16:0.411026 17:0.350065 18:0.138297 19:-0.144245 20:-0.16755 21:-0.0282141 22:0.114625 23:0.122659 24:-0.0867147 25:-0.232254 26:-0.0578609 27:0.109024 28:0.018688 29:0.366579 30:0.180059 31:0.24181 32:0.221585 33:0.213437 34:0.274938 35:0.235171 36:0.183911 37:0.407283 38:0.577256 39:0.547649 40:0.309755 41:-0.0528737 42:-0.109107 43:0.0995131 44:0.0231443 45:0.0148305 46:0.075679 47:0.189508 48:0.101857 49:-0.0250568 50:0.26708 51:-0.218428 52:-0.070255 53:-0.101766 54:-0.280951 55:-0.0530561 56:-0.13803 57:-0.140303 58:-0.220584 59:-0.191731 60:0.225163 61:0.0774169 62:0.21872 63:0.285276 64:-0.0717104 65:0.340473 66:0.094184 67:0.0394385 68:0.279948 69:0.234979 70:0.378775 71:0.394085 72:0.270524 73:0.0723574 74:0.283368 75:0.103005 76:0.209263 77:0.181166 78:-0.0644993 79:-0.0625791 80:0.240572 81:0.0546716 82:0.139739 83:0.1307 84:-0.0109176 85:0.0946521 86:-0.155566 87:-0.023406 88:-0.160176 89:0.24686 90:-0.31699 91:0.0114131 92:-0.15638 93:0.150122 94:0.131082 95:-0.0847889 96:0.152595 97:-0.0202517 98:0.195869 99:0.0170368 100:-0.373019 101:0.0554113 102:0.0769905 103:-0.411545 104:-0.262565 105:-0.144136 106:-0.24662 107:-0.0175309 108:-0.217591 
1 1 1:-0.868846 2:-0.958761 3:-0.964819 4:-0.1615 5:-0.0729988 6:-0.473139 7:-0.848025 8:-0.525067 9:-0.824395 10:-0.808579 11:-0.900236 12:-0.937913 13:-0.1096 14:0.522394 15:0.252065 16:0.40707 17:0.391866 18:0.135841 19:0.119294 20:-0.0688915 21:0.00974515 22:0.260225 23:0.058192 24:0.20847 25:-0.0807322 26:0.266504 27:-0.228686 28:0.246435 29:-0.0384909 30:0.0757504 31:0.205235 32:-0.182996 33:0.192893 34:0.351472 35:0.377679 36:0.443134 37:0.596618 38:0.643859 39:0.53652 40:0.341384 41:0.194764 42:-0.216641 43:0.173601 44:0.0338127 45:-0.0702829 46:-0.200919 47:0.107796 48:0.0122919 49:-0.137749 50:-0.0642141 51:-0.323469 52:-0.208275 53:-0.0636175 54:-0.124716 55:-0.145362 56:0.0553089 57:0.0596181 58:-0.111517 59:0.0632354 60:0.0346251 61:0.257895 62:0.0275835 63:0.128276 64:0.130994 65:0.331496 66:0.0555603 67:0.249851 68:0.484237 69:0.404272 70:0.455615 71:0.378356 72:0.31007 73:0.189436 74:0.375691 75:0.0257068 76:0.352162 77:-0.316982 78:0.162743 79:-0.19884 80:-0.000779089 81:-0.161514 82:-0.327959 83:-0.0308565 84:0.197568 85:0.170218 86:0.043378 87:0.0689238 88:0.0607629 89:0.202619 90:-0.0672478 91:0.112724 92:0.312123 93:0.180614 94:0.368591 95:0.168251 96:0.127209 97:-0.0362367 98:0.290915 99:0.11343 100:0.106292 101:0.175288 102:0.153135 103:-0.148991 104:0.10648 105:-0.243349 106:0.158395 107:0.214783 108:0.0582185 
0.5532349208320091 0 1:-0.869259 2:-0.955063 3:-0.970318 4:-0.220431 5:0.335934 6:-0.447437 7:-0.899215 8:-0.706366 9:-0.732978 10:-0.774184 11:-0.926494 12:-0.962601 13:-0.105214 14:0.527028 15:0.24868 16:0.408469 17:0.425054 18:-0.208759 19:-0.0808659 20:-0.100511 21:-0.197851 22:0.0692746 23:0.00573018 24:-0.513563 25:-0.0304492 26:0.175041 27:0.130926 28:0.31519 29:-0.186815 30:0.429622 31:0.270547 32:0.0120755 33:0.236419 34:0.0218015 35:0.379788 36:0.44702 37:0.212418 38:0.138702 39:0.340516 40:0.40231 41:0.523244 42:0.264543 43:0.311772 44:0.212765 45:0.20461 46:-0.189837 47:0.174038 48:0.0312744 49:-0.141581 50:0.0970646 51:-0.57481 52:0.0130453 53:-0.33881 54:-0.0925824 55:-0.498135 56:-0.123998 57:-0.5013 58:-0.292995 59:-0.218465 60:0.148367 61:0.0934487 62:-0.257549 63:0.316996 64:0.17867 65:0.164277 66:0.160568 67:0.282768 68:0.202966 69:-0.406004 70:0.208375 71:0.389831 72:0.487559 73:0.394058 74:0.610954 75:0.247605 76:0.551171 77:0.145011 78:-0.0305135 79:-0.112114 80:0.0991063 81:-0.186642 82:0.112148 83:0.120934 84:-0.208907 85:0.26262 86:0.0504072 87:-0.0522878 88:-0.278546 89:0.214023 90:-0.10665 91:0.0212039 92:0.0752303 93:-0.0266844 94:0.309707 95:0.0195953 96:-0.23605 97:0.318642 98:0.383735 99:0.148579 100:-0.481074 101:0.0276422 102:0.214537 103:-0.0435437 104:0.299447 105:-0.0253447 106:0.0900559 107:0.119469 108:0.0511544 
1 0 1:-0.869589 2:-0.957421 3:-0.976056 4:-0.218889 5:0.0759853 6:-0.114649 7:-0.895935 8:-0.705968 9:-0.874658 10:-0.801402 11:-0.956356 12:-0.914146 13:-0.107285 14:0.52686 15:0.25217 16:0.40979 17:0.410711 18:0.0965418 19:-0.146153 20:-0.0775632 21:-0.117098 22:0.0451985 23:-0.379284 24:0.0531469 25:0.0495155 26:-0.0699304 27:0.110752 28:0.220624 29:0.0218932 30:0.327702 31:0.0715633 32:-0.227719 33:0.220742 34:-0.198695 35:0.145981 36:0.194708 37:0.423795 38:0.450922 39:-0.0871386 40:0.333659 41:0.528647 42:0.343151 43:0.337998 44:0.0905144 45:0.255296 46:0.191091 47:0.161294 48:0.0312794 49:-0.137332 50:0.00480274 51:-0.171974 52:-0.12842 53:-0.320644 54:-0.371534 55:-0.694114 56:-0.186816 57:-0.23037 58:-0.135556 59:-0.115178 60:-0.0500369 61:0.286616 62:0.0559396 63:0.0688266 64:0.209643 65:0.115196 66:-0.116589 67:0.256293 68:0.365634 69:0.104405 70:-0.151726 71:0.383949 72:0.487156 73:0.360221 74:0.444309 75:0.234844 76:0.606851 77:0.292865 78:0.00660822 79:-0.27827 80:-0.212329 81:-0.264473 82:0.120858 83:0.176883 84:-0.14327 85:0.150613 86:-0.064098 87:-0.0438416 88:-0.309911 89:0.249439 90:-0.193179 91:-0.129054 92:0.0297527 93:-0.191384 94:0.0942662 95:0.0713099 96:-0.0899296 97:-0.0175158 98:0.106956 99:0.000774815 100:0.115127 101:0.212405 102:0.143039 103:0.0441824 104:0.16233 105:0.0457213 106:0.171863 107:0.310836 108:-0.0162297 
1 0.1817065070631407 1:-0.855945 2:-0.955473 3:-0.96938 4:-0.268191 5:0.52628 6:-0.319204 7:-0.879678 8:-0.09344 9:-0.78066 10:-0.738492 11:-0.90396 12:-0.925923 13:-0.111733 14:0.52678 15:0.248906 16:0.430468 17:0.442496 18:0.0135638 19:0.0267849 20:-0.101227 21:-0.202066 22:0.0682295 23:0.287258 24:0.162221 25:0.0451067 26:0.0543979 27:0.163112 28:-0.0890366 29:-0.238037 30:0.248483 31:0.309576 32:-0.0586744 33:0.209615 34:0.286217 35:0.205403 36:0.399862 37:0.400108 38:0.368286 39:0.147279 40:0.152501 41:0.419585 42:0.399644 43:0.418898 44:0.314099 45:0.389114 46:0.186538 47:0.149572 48:0.10371 49:-0.190297 50:0.0347596 51:-0.256179 52:-0.195823 53:-0.508462 54:-0.270189 55:-0.241649 56:-0.0710215 57:-0.524877 58:0.0757759 59:0.0742041 60:-0.0514793 61:0.0712183 62:0.112611 63:-0.220545 64:0.182146 65:0.328134 66:-0.75159 67:0.341036 68:0.384272 69:0.0518462 70:0.132868 71:0.292083 72:0.443755 73:0.414679 74:0.579045 75:0.309293 76:0.55507 77:0.282 78:-0.0296161 79:-0.09586 80:-0.0467668 81:-0.322442 82:-0.56575 83:-0.104151 84:0.0487268 85:0.327611 86:0.067577 87:0.248746 88:-0.00300697 89:0.338807 90:0.181472 91:0.174232 92:-0.291273 93:0.00719693 94:0.054275 95:0.145193 96:0.19106 97:-0.0430794 98:0.0218915 99:0.0339247 100:-0.00573229 101:0.168944 102:-0.0670884 103:0.073713 104:0.339224 105:0.0938924 106:0.136045 107:0.0542995 108:-0.420429 
1 0 1:-0.874809 2:-0.952056 3:-0.97026 4:-0.267368 5:0.151545 6:-0.356239 7:-0.907573 8:-0.721297 9:-0.874018 10:-0.726135 11:-0.913529 12:-0.947098 13:-0.109722 14:0.527016 15:0.248319 16:0.40923 17:0.330779 18:0.0227801 19:-0.0234141 20:-0.202671 21:0.0983111 22:0.0270396 23:0.0448751 24:-0.479343 25:-0.130471 26:-0.0878323 27:0.0448896 28:0.0654178 29:0.133604 30:0.355693 31:0.0787421 32:0.195756 33:0.225298 34:-0.169633 35:0.327423 36:0.40696 37:0.395385 38:0.33472 39:0.0847507 40:0.389059 41:0.595031 42:0.420766 43:0.327577 44:0.225818 45:0.284 46:0.188985 47:0.187063 48:0.0709405 49:-0.0927328 50:0.0624306 51:-0.513018 52:-0.339588 53:-0.185185 54:-0.191459 55:-0.0877255 56:-0.232202 57:-0.258243 58:-0.11329 59:-0.0646179 60:-0.0701349 61:0.323048 62:0.114909 63:0.134591 64:0.297496 65:0.138252 66:0.123579 67:0.38646 68:0.288211 69:-0.18769 70:0.245641 71:0.4185 72:0.568081 73:0.446422 74:0.497891 75:0.0917342 76:0.582475 77:0.23456 78:0.0823871 79:-0.620448 80:0.102856 81:-0.0250072 82:-0.0852891 83:-0.0866232 84:-0.465292 85:0.202694 86:0.217844 87:0.0505163 88:-0.315932 89:0.123396 90:-0.0400734 91:0.225727 92:0.163831 93:0.190953 94:0.384879 95:0.0741383 96:0.219899 97:0.317984 98:-0.170783 99:0.00422654 100:0.110318 101:0.152027 102:0.08848 103:0.0623649 104:0.414804 105:0.222023 106:0.0120487 107:0.315353 108:0.226986 
0.7760106305807267 1 1:-0.871844 2:-0.952474 3:-0.967853 4:-0.226241 5:0.260478 6:-0.300671 7:-0.905166 8:-0.81366 9:-0.805744 10:-0.763288 11:-0.937186 12:-0.999841 13:-0.109571 14:0.530468 15:0.249235 16:0.412038 17:0.3571 18:0.0823733 19:0.03034 20:0.0479283 21:0.0484534 22:0.0443644 23:0.116909 24:-0.0986583 25:-0.0245911 26:-0.101155 27:0.116886 28:0.0361032 29:0.185083 30:0.179633 31:0.225596 32:0.274126 33:0.217068 34:0.198594 35:0.372922 36:0.309793 37:-0.883441 38:0.343058 39:0.409498 40:0.378915 41:0.423741 42:0.150106 43:0.0945678 44:-0.0370349 45:0.0663928 46:-0.0312452 47:0.199917 48:-0.0943563 49:-0.140102 50:0.255374 51:-0.159822 52:-0.227283 53:-0.429195 54:-0.142487 55:-0.0642158 56:-0.0766137 57:-0.084468 58:-0.414762 59:-0.235359 60:0.12932 61:0.0412771 62:-0.033811 63:0.237574 64:0.128197 65:0.168595 66:0.186773 67:0.282855 68:-0.31456 69:0.092668 70:0.355293 71:0.395464 72:0.437288 73:0.236324 74:0.246872 75:0.0762008 76:0.428001 77:0.0779799 78:-0.039921 79:-0.202264 80:0.176482 81:-0.0515306 82:0.200738 83:0.0782453 84:0.00300514 85:0.164764 86:0.200331 87:-0.29863 88:-0.301073 89:0.224393 90:-0.168917 91:0.0917855 92:-0.411645 93:-0.37507 94:0.234934 95:0.00150172 96:-0.042367 97:-0.101197 98:0.307696 99:-0.0671779 100:-0.120183 101:0.286561 102:0.215066 103:-0.174703 104:0.139414 105:-0.133192 106:-0.104707 107:0.135515 108:-0.222013 
1 1 1:-0.85367 2:-0.944434 3:-0.953116 4:-0.295024 5:0.173973 6:-0.361003 7:-0.912041 8:-0.797313 9:-0.894894 10:-0.778871 11:-0.919086 12:-0.898521 13:-0.110333 14:0.524455 15:0.249589 16:0.439318 17:0.41601 18:0.0946495 19:-0.159773 20:-0.0772024 21:-0.432744 22:0.0834642 23:0.231671 24:-0.258717 25:0.0228851 26:-0.103359 27:0.164451 28:-0.109499 29:0.112738 30:0.154044 31:-0.518547 32:0.223202 33:0.0552923 34:0.321088 35:0.377822 36:0.125269 37:0.434227 38:0.566714 39:0.519992 40:0.389939 41:0.303355 42:-0.145692 43:-0.0381387 44:-0.0533944 45:0.0626861 46:0.114516 47:0.21327 48:-0.0980939 49:0.0961163 50:0.155868 51:-0.0747347 52:0.00584037 53:-0.902924 54:-0.506284 55:-0.0402916 56:-0.251756 57:0.0454104 58:-0.109275 59:0.0834529 60:0.217957 61:0.236963 62:0.0409856 63:0.341591 64:-0.417352 65:0.289764 66:0.174333 67:-0.0447043 68:0.263493 69:0.380469 70:0.494681 71:0.410762 72:0.235105 73:0.0988926 74:0.344411 75:-0.499183 76:0.316571 77:-0.453964 78:-0.0054167 79:0.0177637 80:0.295523 81:0.045454 82:0.158054 83:0.241407 84:-0.14225 85:-0.134736 86:-0.0171284 87:-0.106669 88:0.0642762 89:0.284215 90:-0.015492 91:-0.0863876 92:-0.0710493 93:0.208325 94:0.268229 95:-0.0954832 96:-0.130201 97:-0.247152 98:0.0388717 99:-0.111929 100:0.110261 101:0.282314 102:-0.069132 103:-0.262394 104:0.19134 105:0.0407135 106:-0.297813 107:0.0465909 108:-0.238635 
1 1 1:-0.858458 2:-0.958091 3:-0.975132 4:-0.22518 5:-0.00518384 6:-0.237989 7:-0.905077 8:-0.574251 9:-0.809245 10:-0.923283 11:-0.922727 12:-0.930301 13:-0.110351 14:0.528318 15:0.24897 16:0.428048 17:0.426846 18:0.0709259 19:-0.00447951 20:-0.0792886 21:-0.325868 22:0.153725 23:0.212752 24:0.0133305 25:0.0785675 26:0.193433 27:0.225168 28:0.0612842 29:0.315101 30:0.35789 31:0.00241231 32:0.206425 33:0.11215 34:0.106532 35:0.259931 36:0.392404 37:0.326366 38:0.455281 39:0.408064 40:0.321831 41:0.359135 42:0.169388 43:0.221201 44:-0.230382 45:-0.189803 46:0.0223498 47:0.138788 48:-0.0170096 49:-0.303325 50:0.121837 51:-0.468619 52:0.0399342 53:-0.2308 54:-0.0541079 55:-0.121805 56:-0.206149 57:-0.449597 58:-0.137088 59:-0.0939218 60:0.214495 61:0.212201 62:-0.19907 63:0.301376 64:0.168415 65:-0.152189 66:0.036926 67:0.335974 68:0.232586 69:0.0431122 70:0.376288 71:0.46148 72:0.504661 73:0.400195 74:0.457629 75:0.0707119 76:0.230991 77:0.137985 78:-0.0280058 79:-0.461879 80:0.15217 81:-0.034098 82:-0.0783658 83:-0.0700097 84:-0.200456 85:-0.0462601 86:0.102545 87:0.00601853 88:-0.5603 89:0.256941 90:-0.00840815 91:-0.260921 92:-0.178598 93:0.0508854 94:0.362971 95:-0.087559 96:-0.457582 97:0.307274 98:0.346049 99:-0.0824312 100:0.13776 101:0.287792 102:0.236166 103:-0.0675245 104:0.171773 105:-0.080121 106:-0.230153 107:0.154444 108:-0.0556613 
1 0.3957942909839615 1:-0.862148 2:-0.953733 3:-0.960015 4:-0.191472 5:0.0709626 6:-0.417718 7:-0.912416 8:-0.666489 9:-0.843947 10:-0.772888 11:-0.97261 12:-0.814742 13:-0.109668 14:0.52833 15:0.249589 16:0.425319 17:0.385079 18:0.0942638 19:-0.0929579 20:0.00118686 21:0.0400048 22:-0.0280749 23:0.0426647 24:0.0615604 25:-0.02102 26:0.101872 27:0.134951 28:0.140035 29:-0.0106083 30:0.418488 31:0.226422 32:0.167607 33:0.387531 34:0.167835 35:0.351455 36:0.464252 37:0.229391 38:0.211625 39:0.232245 40:0.372647 41:0.542107 42:0.427631 43:0.399769 44:0.353773 45:0.460982 46:0.452376 47:0.170634 48:0.046631 49:-0.0845049 50:0.0972806 51:-0.384035 52:-0.120069 53:-0.442211 54:-0.531422 55:-0.388037 56:-0.300042 57:-0.0531869 58:-0.182208 59:0.0677462 60:-0.247678 61:0.276601 62:-0.124166 63:0.273225 64:0.380904 65:0.278443 66:0.100187 67:0.346308 68:0.203971 69:-0.0216175 70:0.264042 71:0.437417 72:0.548705 73:0.392378 74:0.531624 75:0.276812 76:0.546861 77:0.300764 78:0.0568417 79:-0.0621957 80:0.189285 81:0.0558676 82:0.145632 83:0.0353401 84:-0.146066 85:0.0683861 86:0.096956 87:0.210678 88:0.147514 89:0.144592 90:0.225129 91:0.0997315 92:0.103635 93:0.219678 94:0.218492 95:0.166771 96:0.0239981 97:0.171531 98:0.367212 99:0.0579652 100:-0.013286 101:0.141214 102:0.168031 103:0.0665309 104:0.384413 105:-0.00092457 106:0.314715 107:0.264128 108:0.161813 
0 1 1:-0.881524 2:-0.956708 3:-0.982679 4:-0.232723 5:0.348509 6:-0.291689 7:-0.913787 8:-0.670136 9:-0.766439 10:-0.758185 11:-0.964296 12:-0.929397 13:-0.107718 14:0.529417 15:0.247942 16:0.399193 17:0.315955 18:-0.0809658 19:-0.274492 20:-0.173707 21:-0.0405665 22:0.160599 23:-0.0588508 24:0.133604 25:-0.346682 26:0.128085 27:0.110539 28:0.219827 29:0.184838 30:0.216845 31:0.261662 32:-0.117558 33:0.266092 34:0.307679 35:0.209866 36:0.12453 37:0.437543 38:0.623848 39:0.501958 40:0.249956 41:0.171441 42:-0.00910243 43:0.0691399 44:-0.0897219 45:-0.203333 46:-0.233919 47:0.151235 48:0.0766231 49:-0.028358 50:0.0462239 51:-0.213433 52:-0.372003 53:-0.233652 54:-0.219251 55:-0.0524982 56:-0.389225 57:-0.0829055 58:-0.359195 59:0.0840305 60:0.0481457 61:0.00466351 62:0.0279127 63:-0.106875 64:0.160684 65:0.260587 66:-0.309796 67:-0.0628959 68:0.376753 69:0.329552 70:0.432399 71:0.391714 72:0.214084 73:0.149225 74:-0.00948777 75:-0.520519 76:-0.0703638 77:-0.142665 78:-0.0876219 79:-0.314111 80:-0.0636732 81:-0.294826 82:-0.028956 83:-0.125356 84:-0.0408487 85:0.0351773 86:0.158571 87:0.00527889 88:-0.0522139 89:0.0953663 90:-0.0606923 91:-0.23007 92:-0.151631 93:0.05819 94:-0.255034 95:-0.124964 96:-0.167864 97:-0.0838042 98:-0.0198004 99:-0.068053 100:-0.0155456 101:0.106338 102:0.193334 103:-0.151915 104:0.197149 105:-0.525368 106:-0.479314 107:0.0301383 108:-0.198574 
0.231509029229644 1 1:-0.857007 2:-0.959241 3:-0.975016 4:-0.225981 5:0.0149549 6:-0.284446 7:-0.898157 8:-0.69113 9:-0.802537 10:-0.75482 11:-0.931857 12:-0.984255 13:-0.107302 14:0.524811 15:0.247739 16:0.425683 17:0.462901 18:-0.0143927 19:0.00469352 20:-0.15942 21:0.0333605 22:0.0138068 23:0.0794849 24:-0.385602 25:-0.0923933 26:0.0666724 27:0.129211 28:0.166476 29:0.0806793 30:0.265654 31:0.150613 32:-0.165126 33:0.0832828 34:0.186149 35:0.0739229 36:0.204168 37:0.297072 38:0.406995 39:0.138165 40:0.204225 41:0.473041 42:0.403478 43:0.329412 44:0.146279 45:0.214861 46:0.228143 47:0.0948855 48:0.0467376 49:-0.142138 50:0.0677558 51:-0.114642 52:-0.0307097 53:-0.219989 54:-0.159623 55:-0.097429 56:-0.197248 57:-0.685626 58:-0.175242 59:-0.165283 60:-0.0118409 61:0.145796 62:-0.0365384 63:-0.166996 64:0.11795 65:0.158742 66:-0.370928 67:0.0941007 68:0.202973 69:0.151947 70:0.0448707 71:0.280188 72:0.509555 73:0.443328 74:0.536888 75:0.201116 76:0.584063 77:0.221301 78:0.0180349 79:-0.268647 80:0.00806488 81:-0.0703948 82:0.0340143 83:0.113396 84:-0.117653 85:0.11926 86:0.160645 87:0.0850229 88:-0.181366 89:0.113232 90:-0.0881935 91:-0.239459 92:-0.0976611 93:-0.0546359 94:0.0644973 95:-0.0997842 96:0.0316072 97:0.163981 98:0.294552 99:0.0788275 100:0.0609839 101:-0.0663483 102:0.164747 103:0.112874 104:0.370554 105:0.259646 106:-0.0107438 107:0.140395 108:-0.249542 
1 1 1:-0.867021 2:-0.950696 3:-0.965059 4:-0.178313 5:0.337911 6:-0.403102 7:-0.925421 8:-0.686298 9:-0.751018 10:-0.786719 11:-0.940943 12:-0.918157 13:-0.111483 14:0.527994 15:0.250612 16:0.421594 17:0.342424 18:0.0565697 19:-0.0318143 20:0.017132 21:0.0100913 22:0.137274 23:0.0857676 24:-0.328491 25:-0.0161403 26:-0.268834 27:0.250337 28:-0.0274696 29:0.355679 30:0.180059 31:0.209173 32:0.282105 33:0.107898 34:0.218039 35:0.328651 36:0.16619 37:0.0894068 38:0.594386 39:0.615606 40:0.439044 41:0.356299 42:0.223033 43:0.213926 44:-0.210519 45:-0.128356 46:-0.218438 47:0.171885 48:0.00116546 49:-0.00904371 50:0.20795 51:-0.44735 52:0.076921 53:-0.359033 54:-0.571869 55:-0.130238 56:-0.119807 57:-0.167398 58:0.0229502 59:-0.163628 60:0.229419 61:0.158121 62:0.155492 63:0.219702 64:-1 65:0.293513 66:0.143701 67:0.0908911 68:0.167219 69:0.344474 70:0.504545 71:0.472456 72:0.364449 73:0.260517 74:0.38541 75:-0.0709348 76:0.268559 77:-0.124707 78:-0.091685 79:-0.164134 80:0.190643 81:0.149862 82:0.0951436 83:0.180276 84:-0.0718912 85:-0.13583 86:0.0531216 87:0.0890074 88:-0.172989 89:0.403278 90:0.0807273 91:-0.207747 92:-0.173562 93:0.124831 94:0.163426 95:-0.470279 96:-0.0783533 97:-0.176775 98:0.0551783 99:0.0154872 100:-0.0711303 101:0.325781 102:0.1551 103:-0.0683619 104:0.296679 105:0.0650545 106:0.00732534 107:-0.257048 108:-0.464325 
0 1 1:-0.864596 2:-0.945268 3:-0.983223 4:-0.27445 5:0.210134 6:-0.425279 7:-0.905968 8:-0.677605 9:-0.771876 10:-0.716513 11:-0.949343 12:-0.968848 13:-0.108271 14:0.525566 15:0.247439 16:0.419508 17:0.423696 18:-0.00543178 19:-0.118164 20:-0.121925 21:-0.415246 22:0.192398 23:0.22265 24:-0.331228 25:-0.032565 26:0.0179447 27:0.114194 28:-0.177842 29:0.194548 30:0.26837 31:0.186224 32:0.00256689 33:0.234612 34:0.173972 35:0.235112 36:0.384544 37:0.272272 38:0.244548 39:0.102047 40:0.256753 41:0.382842 42:0.341937 43:0.401269 44:0.160353 45:0.215594 46:0.244939 47:0.212071 48:0.204158 49:-0.234548 50:0.175164 51:-0.523433 52:-0.0779512 53:-0.357413 54:-0.121162 55:-0.396396 56:-0.315709 57:-0.14694 58:-0.199703 59:-0.200565 60:-0.411982 61:-0.0105635 62:-0.0339185 63:0.195246 64:0.266564 65:0.203433 66:-0.426338 67:0.211033 68:0.214829 69:0.117748 70:-0.165452 71:0.180245 72:0.371898 73:0.342096 74:0.487263 75:-0.0848661 76:0.248664 77:0.0773599 78:-0.119683 79:-0.53909 80:-0.108479 81:0.0042464 82:-0.106792 83:0.0330374 84:-0.185943 85:0.125639 86:-0.0837808 87:-0.146532 88:-0.404033 89:-0.11078 90:-0.337192 91:-0.271631 92:-0.390111 93:-0.109405 94:0.102853 95:-0.167843 96:-0.0453153 97:-0.0565621 98:0.0269053 99:0.0227249 100:-0.12586 101:0.171589 102:-0.0220364 103:-0.072542 104:0.381048 105:0.174211 106:-0.0962595 107:-0.0833041 108:-0.111135 
1 1 1:-0.877998 2:-0.955254 3:-0.972143 4:-0.362722 5:0.115238 6:-0.237862 7:-0.851881 8:-0.516875 9:-0.76928 10:-0.848227 11:-0.925889 12:-0.965833 13:-0.106986 14:0.523686 15:0.249127 16:0.39531 17:0.380374 18:0.119692 19:0.00766005 20:-0.144338 21:-0.295036 22:0.0134879 23:0.00932346 24:0.130768 25:-0.0493994 26:0.0204622 27:0.17292 28:0.0704964 29:0.340779 30:-0.113857 31:0.309753 32:0.266055 33:0.149323 34:0.320547 35:0.406292 36:0.347934 37:0.150535 38:0.515831 39:0.454007 40:0.329886 41:0.361554 42:0.219848 43:0.322565 44:0.164558 45:-0.187603 46:0.0766921 47:0.0991439 48:0.175537 49:-0.401281 50:-0.132884 51:-0.36103 52:-0.173396 53:-0.253105 54:-0.172066 55:-0.183592 56:-0.281209 57:-0.27169 58:-0.203776 59:0.0844199 60:0.172485 61:-0.0684858 62:0.160396 63:0.216509 64:-0.413518 65:0.399174 66:0.340075 67:0.312819 68:-0.169429 69:0.225733 70:0.414613 71:0.379541 72:0.395493 73:0.326874 74:0.467711 75:0.0372767 76:0.217986 77:-0.0107553 78:0.10705 79:-0.16631 80:0.00679261 81:-0.241773 82:0.0112368 83:-0.228431 84:0.0544677 85:-0.166975 86:0.0832059 87:-0.000572625 88:0.0944562 89:0.267193 90:-0.231045 91:0.0460758 92:0.191415 93:0.180557 94:0.236694 95:-0.0662725 96:0.097228 97:0.149834 98:-0.158412 99:-0.02566 100:-0.362488 101:0.103224 102:0.215875 103:0.00397787 104:0.164522 105:-0.0238553 106:-0.177075 107:-0.0589025 108:-0.0161167 
1 1 1:-0.879074 2:-0.956963 3:-0.967726 4:-0.153543 5:0.141465 6:-0.352582 7:-0.891439 8:-0.751322 9:-0.580317 10:-0.708369 11:-0.932038 12:-0.904166 13:-0.108028 14:0.526396 15:0.247977 16:0.39854 17:0.331474 18:-0.074945 19:0.0375214 20:-0.0117474 21:-0.222181 22:0.148887 23:-0.0165209 24:-0.0258031 25:-0.0697926 26:-0.0733877 27:0.336661 28:0.0364825 29:0.442669 30:0.133978 31:0.235755 32:0.264723 33:0.16297 34:0.196356 35:0.412868 36:0.477766 37:0.0296231 38:0.436139 39:0.406099 40:0.442982 41:0.516615 42:0.326718 43:0.387714 44:0.267155 45:0.120888 46:0.181201 47:0.151636 48:0.0254445 49:-0.128693 50:0.147905 51:-0.436189 52:-0.144549 53:-0.141055 54:-0.172027 55:-0.34038 56:-0.0646443 57:-0.0386655 58:-0.154448 59:-0.142775 60:0.00687246 61:-0.0119006 62:-0.058573 63:0.275721 64:-0.0539072 65:-0.251786 66:0.305723 67:0.368303 68:-1 69:0.0391065 70:0.359067 71:0.373358 72:0.494481 73:0.407186 74:0.522178 75:0.153701 76:0.376469 77:-0.28542 78:-0.0889181 79:-0.281008 80:0.0627155 81:0.162662 82:-0.0513224 83:0.205397 84:0.0997195 85:0.0725373 86:0.238641 87:-0.231227 88:-0.030025 89:0.337791 90:-0.000615231 91:-0.367702 92:-0.106605 93:-0.235529 94:0.260945 95:-0.198737 96:0.225138 97:0.262547 98:0.396082 99:0.168293 100:-0.285872 101:0.0495031 102:0.317189 103:-0.0971899 104:0.346363 105:0.156252 106:0.175793 107:0.322846 108:0.124458 
1 0 1:-0.87022 2:-0.950607 3:-0.972635 4:-0.196845 5:0.294319 6:-0.346841 7:-0.883316 8:-0.647588 9:-0.814953 10:-0.721849 11:-0.901921 12:-0.917879 13:-0.107522 14:0.52459 15:0.249123 16:0.413927 17:0.368553 18:0.0192667 19:-0.0245199 20:-0.11472 21:-0.282689 22:0.129595 23:0.187599 24:0.0255018 25:0.160599 26:0.118795 27:0.309038 28:0.197893 29:0.154273 30:0.321049 31:-0.0296373 32:0.199088 33:0.330118 34:0.297876 35:0.182585 36:0.446258 37:0.272765 38:0.357254 39:0.353502 40:0.367974 41:0.502872 42:0.279388 43:0.260349 44:0.243651 45:0.203754 46:-0.097201 47:0.181637 48:0.123368 49:-0.354615 50:0.185297 51:-0.0888705 52:-0.426006 53:-0.320687 54:-0.331028 55:-0.173288 56:-0.274326 57:-0.01828 58:-0.103841 59:-0.235054 60:0.166837 61:0.276536 62:-0.190485 63:-0.0186553 64:0.233012 65:0.311659 66:0.0753214 67:0.406026 68:0.220027 69:-0.135342 70:0.178468 71:0.331303 72:0.451815 73:0.345075 74:0.530822 75:0.0543983 76:0.32566 77:0.25789 78:0.0558396 79:-0.248931 80:0.0853686 81:-0.0779453 82:0.0414619 83:-0.603125 84:0.00917011 85:0.141645 86:0.0932281 87:0.0881246 88:-0.0271799 89:0.195523 90:0.0413039 91:-0.266728 92:0.106468 93:0.117166 94:0.389904 95:-0.0418295 96:0.00387322 97:0.0499099 98:0.343531 99:0.0994285 100:0.0191957 101:0.0989053 102:0.0705918 103:0.0548208 104:0.174322 105:-0.326496 106:0.0313616 107:-0.044237 108:-0.169647 
1 0 1:-0.842799 2:-0.950568 3:-0.965749 4:-0.262753 5:0.278688 6:-0.438047 7:-0.901021 8:-0.654375 9:-0.816767 10:-0.619945 11:-0.962844 12:-0.9138 13:-0.109999 14:0.522485 15:0.247239 16:0.444197 17:0.486825 18:-0.0128601 19:0.108825 20:-0.226888 21:-0.309005 22:0.0579505 23:0.0669302 24:0.0162334 25:-0.522596 26:0.058271 27:0.243759 28:0.0271031 29:0.274213 30:-0.245052 31:0.231036 32:0.0629504 33:0.252777 34:0.316387 35:0.236552 36:0.406919 37:0.470555 38:0.351259 39:0.039733 40:0.320539 41:0.5248 42:0.52087 43:0.484961 44:0.259991 45:0.0574653 46:0.0895473 47:0.135374 48:0.136115 49:-0.0605739 50:0.0596575 51:-0.0813642 52:-0.363918 53:-0.174658 54:-0.231794 55:-0.255264 56:-0.215556 57:-0.150475 58:-0.111253 59:0.0832387 60:0.0620829 61:-0.341144 62:0.163452 63:0.158528 64:0.0178453 65:0.417053 66:-0.0146754 67:0.253847 68:0.373882 69:0.0823135 70:0.0116331 71:0.325227 72:0.534762 73:0.462242 74:0.60528 75:0.185213 76:0.465063 77:0.0822393 78:-0.0545035 79:-0.141394 80:0.224933 81:-0.640053 82:0.168064 83:-0.291044 84:0.00566937 85:-0.307097 86:-0.00405984 87:-0.249474 88:-0.0593301 89:0.165358 90:-0.142153 91:-0.0213116 92:0.0794249 93:-0.0276537 94:0.0295608 95:0.150937 96:0.207543 97:-0.0454218 98:0.411932 99:0.328998 100:0.148384 101:0.0614238 102:-0.160288 103:0.156627 104:0.444328 105:0.32633 106:0.0573284 107:-0.273919 108:-0.118779 
1 1 1:-0.89301 2:-0.951892 3:-0.970191 4:-0.11861 5:0.239245 6:-0.34064 7:-0.90435 8:-0.73777 9:-0.748842 10:-0.857829 11:-0.932702 12:-0.953545 13:-0.110536 14:0.531421 15:0.248205 16:0.381616 17:-0.0613473 18:0.179051 19:-0.465931 20:-0.22713 21:-0.225188 22:-0.0334426 23:-0.383253 24:0.149078 25:-0.0689365 26:0.177445 27:-0.066516 28:-0.0218702 29:0.167984 30:0.210975 31:0.323457 32:0.0198872 33:0.229185 34:0.247524 35:0.235928 36:0.549085 37:0.582717 38:0.53358 39:0.211665 40:0.084132 41:0.151831 42:-0.263321 43:-0.123154 44:-0.111949 45:-0.352834 46:-0.130269 47:0.215856 48:0.0464075 49:-0.255988 50:0.0651334 51:-0.554697 52:-0.319958 53:-0.364885 54:0.0388518 55:0.0699072 56:-0.109382 57:0.0381406 58:0.0452578 59:-0.0051793 60:-0.290489 61:0.042361 62:0.0377073 63:0.0764125 64:0.200454 65:0.217592 66:0.112236 67:0.453803 68:0.503164 69:0.253023 70:0.214319 71:0.0190793 72:-0.10387 73:0.161016 74:0.0895545 75:-0.0526012 76:0.389748 77:0.0569626 78:0.0183639 79:-0.194941 80:-0.076701 81:-0.108908 82:-0.165818 83:0.0670297 84:-0.0490476 85:0.30796 86:0.396436 87:0.031053 88:0.143484 89:0.230743 90:-0.0376055 91:-0.21234 92:-0.470993 93:-0.102379 94:0.314994 95:0.0162346 96:0.185618 97:0.0473585 98:0.238241 99:0.176898 100:0.0787058 101:0.161218 102:0.106046 103:-0.306175 104:-0.0210544 105:-0.142632 106:0.117259 107:-0.201066 108:-0.0874284 
1 1 1:-0.886408 2:-0.956678 3:-0.961626 4:-0.0955525 5:0.177278 6:-0.176172 7:-0.902818 8:-0.682206 9:-0.828342 10:-0.714264 11:-0.943742 12:-0.988086 13:-0.1121 14:0.52841 15:0.251615 16:0.392134 17:0.144271 18:0.120933 19:-0.105097 20:-0.177699 21:-0.000156036 22:0.16475 23:0.200213 24:0.0777661 25:0.0207449 26:0.159822 27:0.0465359 28:-0.0451226 29:0.264485 30:0.086422 31:0.387717 32:0.306163 33:0.13535 34:0.323285 35:0.402655 36:0.171717 37:0.0470187 38:0.546674 39:0.564615 40:0.419175 41:0.428039 42:0.262168 43:0.373378 44:0.0877507 45:0.0996928 46:0.220248 47:0.17617 48:-0.16727 49:-0.217827 50:0.135371 51:-0.257737 52:-0.0988087 53:-0.33244 54:0.0126483 55:-0.0278141 56:0.0440336 57:0.120443 58:-0.157559 59:0.0500016 60:0.0442094 61:0.0399141 62:0.184681 63:0.219742 64:-0.19526 65:0.169898 66:0.117974 67:0.271869 68:0.12723 69:0.165451 70:0.45576 71:0.383387 72:0.397079 73:0.272263 74:0.298678 75:-0.267401 76:0.0199389 77:0.146631 78:0.178641 79:-0.284129 80:-0.00676402 81:0.0792259 82:0.0834421 83:0.0619298 84:-0.0089352 85:0.302997 86:0.16835 87:0.140973 88:0.0777852 89:0.0231789 90:0.228522 91:0.188474 92:0.0251269 93:0.0981089 94:0.271542 95:-0.383923 96:0.180293 97:0.3404 98:0.175557 99:-0.254075 100:0.0800746 101:0.199462 102:0.162107 103:-0.287879 104:0.268279 105:-0.0324751 106:0.0513613 107:0.121552 108:0.119973 
1 0.1330102072311664 1:-0.884597 2:-0.942841 3:-0.973567 4:-0.231848 5:-0.0152573 6:-0.363098 7:-0.910766 8:-0.676634 9:-0.819776 10:-0.698794 11:-0.957631 12:-0.909206 13:-0.109034 14:0.530403 15:0.249117 16:0.397347 17:0.188091 18:0.031522 19:-0.207273 20:-0.0683108 21:-0.00602866 22:-0.129605 23:-0.0493286 24:0.139865 25:-0.112787 26:0.210999 27:0.0233258 28:0.172975 29:0.246307 30:0.0311445 31:0.412039 32:0.196052 33:0.0778066 34:0.333706 35:0.282582 36:0.1235 37:0.450439 38:0.556188 39:0.517324 40:0.48226 41:0.403093 42:0.0308811 43:0.0739145 44:-0.154407 45:0.183557 46:-0.146126 47:0.238336 48:0.138913 49:-0.0366491 50:0.18479 51:-0.406803 52:-0.164254 53:-0.363363 54:-0.669416 55:0.0327934 56:-0.11474 57:0.0106663 58:0.0447883 59:-0.124621 60:0.0621085 61:0.118756 62:0.107398 63:0.20324 64:0.176238 65:0.350798 66:0.213929 67:0.030765 68:0.337942 69:0.260669 70:0.440214 71:0.397217 72:0.33958 73:0.15039 74:0.274218 75:0.113565 76:0.447025 77:-0.0236736 78:-0.0419003 79:-0.123282 80:-0.503942 81:-0.00463299 82:-0.160473 83:-0.110944 84:-0.0215688 85:0.00504224 86:0.311428 87:0.0794219 88:0.0610178 89:0.189276 90:-0.208681 91:-0.130195 92:0.0449507 93:0.0360797 94:0.279695 95:0.0306905 96:0.23342 97:-0.441068 98:0.184817 99:0.288945 100:0.151824 101:0.339624 102:0.301989 103:-0.0390868 104:-0.0634707 105:0.103829 106:-0.0792052 107:-0.0197739 108:0.0275322 
1 1 1:-0.880831 2:-0.969838 3:-0.966666 4:-0.155853 5:0.121487 6:-0.523252 7:-0.893465 8:-0.728805 9:-0.677962 10:-0.689213 11:-0.962996 12:-0.838735 13:-0.105269 14:0.522698 15:0.249585 16:0.395418 17:0.326956 18:0.0649259 19:-0.177114 20:-0.150461 21:-0.0134276 22:0.210321 23:-0.0259342 24:0.157977 25:-0.327457 26:0.184342 27:0.0181868 28:0.111916 29:0.26704 30:0.32003 31:0.399321 32:0.0382688 33:0.285073 34:0.44619 35:0.288489 36:0.223244 37:0.452628 38:0.646889 39:0.489108 40:0.365101 41:0.302155 42:0.186409 43:0.0856711 44:0.0820333 45:0.211908 46:-0.262625 47:0.0235305 48:-0.250152 49:-0.322645 50:-0.010344 51:-0.555022 52:-0.0760886 53:-0.257461 54:-0.226638 55:0.0274155 56:-0.12357 57:0.0537661 58:-0.23565 59:-0.105241 60:0.0819951 61:-0.0989073 62:0.185137 63:0.135052 64:-0.00735959 65:0.31542 66:0.0507507 67:0.184843 68:0.28556 69:0.340412 70:0.404236 71:0.379501 72:0.315361 73:0.097059 74:-0.633108 75:0.0625969 76:0.555278 77:0.1292 78:0.0698487 79:-0.016932 80:0.137594 81:-0.253008 82:0.0746123 83:-0.557876 84:-0.0410435 85:-0.202728 86:0.113835 87:-0.106759 88:-0.242277 89:0.133724 90:-0.0257041 91:0.134811 92:-0.0174082 93:0.190554 94:0.467751 95:0.0219499 96:-0.0625352 97:-0.223506 98:0.173899 99:0.0834582 100:0.171538 101:0.345278 102:0.231069 103:0.0091303 104:0.196064 105:-0.00899747 106:-0.402794 107:-0.0210987 108:-0.0554565 
1 0 1:-0.86636 2:-0.953042 3:-0.970233 4:-0.27131 5:0.23077 6:-0.629279 7:-0.912945 8:-0.717093 9:-0.630307 10:-0.681812 11:-0.940247 12:-0.988414 13:-0.10837 14:0.530798 15:0.247676 16:0.424171 17:0.35084 18:-0.0253761 19:-0.348317 20:-0.0506742 21:-0.0950996 22:0.17891 23:0.173705 24:-0.17866 25:0.063109 26:-0.0966893 27:0.192118 28:-0.148894 29:0.335145 30:0.161006 31:0.282379 32:0.269937 33:0.286869 34:0.392004 35:0.341724 36:0.333407 37:-0.165178 38:0.476576 39:0.527794 40:0.434543 41:0.442085 42:0.275188 43:0.215304 44:0.0761261 45:-0.013819 46:0.17343 47:0.179751 48:-0.113603 49:0.0461861 50:0.108323 51:-0.464644 52:-0.0147306 53:-0.14456 54:-0.414377 55:-0.139097 56:-0.0686471 57:-0.418497 58:0.0258671 59:0.0452182 60:0.233349 61:0.183584 62:0.0843897 63:0.289253 64:-0.121377 65:0.355269 66:0.289667 67:0.261495 68:0.0448358 69:0.22948 70:0.333352 71:0.385599 72:0.415961 73:0.157381 74:0.333272 75:0.128785 76:0.537175 77:0.0812461 78:0.0977623 79:-0.0478909 80:0.00737871 81:-0.66715 82:-0.320196 83:-0.0280797 84:-0.238237 85:0.191549 86:-0.0470348 87:-0.081611 88:0.0199053 89:0.0949747 90:0.0602891 91:-0.0563619 92:-0.180371 93:0.147974 94:0.375596 95:-0.568168 96:0.139003 97:0.285522 98:0.0454201 99:-0.0153353 100:0.0974272 101:0.366943 102:0.236421 103:0.0289451 104:0.249019 105:0.130436 106:-0.0352684 107:0.0606217 108:0.181416 
1 1 1:-0.869125 2:-0.952738 3:-0.972944 4:-0.181177 5:0.315615 6:-0.29632 7:-0.900702 8:-0.671564 9:-0.776419 10:-0.741118 11:-0.930372 12:-0.929032 13:-0.108209 14:0.526058 15:0.247432 16:0.416907 17:0.374644 18:-0.133814 19:-0.155403 20:-0.0751557 21:-0.220411 22:-0.014273 23:0.0369209 24:-0.171224 25:-0.226634 26:0.162749 27:-0.133373 28:0.219287 29:-0.106317 30:0.309427 31:0.278036 32:-0.0162343 33:0.372338 34:0.348318 35:0.223332 36:0.479709 37:0.510792 38:0.32994 39:-0.105632 40:0.241778 41:0.503087 42:0.436543 43:0.466241 44:0.307438 45:0.26806 46:0.174987 47:0.176034 48:0.00861016 49:-0.0917841 50:0.231521 51:-0.455799 52:-0.413554 53:-0.204528 54:-0.13655 55:-0.0209057 56:-0.266729 57:-0.118904 58:-0.187625 59:-0.0322116 60:-0.327371 61:0.136462 62:0.244026 63:-0.411985 64:0.151096 65:0.292079 66:-0.354474 67:0.368804 68:0.319779 69:0.0464375 70:-0.262976 71:0.160828 72:0.460018 73:0.464197 74:0.619788 75:0.189776 76:0.555533 77:0.0507034 78:0.0712596 79:-0.432649 80:0.000345468 81:-0.0431405 82:-0.03803 83:0.0103826 84:0.118931 85:0.0848665 86:0.0487299 87:-0.0254937 88:-0.237696 89:0.237983 90:0.0550197 91:0.00934579 92:-0.0865825 93:0.175837 94:0.128804 95:0.144996 96:0.0437978 97:0.131777 98:0.337129 99:0.252204 100:0.0995709 101:-0.131384 102:0.0989417 103:0.0300239 104:0.292408 105:0.221857 106:0.104211 107:-0.172554 108:-0.122502 
1 1 1:-0.868424 2:-0.941953 3:-0.967441 4:-0.149584 5:0.208421 6:0.026808 7:-0.921678 8:-0.737288 9:-0.617774 10:-0.676691 11:-0.966857 12:-0.90457 13:-0.112345 14:0.530747 15:0.25033 16:0.424892 17:0.215799 18:0.125181 19:-0.534518 20:-0.216649 21:-0.0924498 22:-0.0580977 23:0.194764 24:0.233618 25:0.0572937 26:0.244946 27:0.0439758 28:0.228654 29:-0.253888 30:0.311544 31:0.223226 32:0.166965 33:0.244671 34:0.212914 35:0.445285 36:0.572577 37:0.343032 38:0.161293 39:0.377703 40:0.454535 41:0.51493 42:0.402027 43:0.323833 44:-0.059485 45:-0.0961286 46:0.0745733 47:0.255567 48:0.0208386 49:0.0126169 50:0.204026 51:-0.296501 52:-0.273672 53:-0.338249 54:-0.565006 55:0.0452869 56:-0.100591 57:0.0372719 58:-0.0966867 59:0.191855 60:0.00291054 61:0.363394 62:0.0184002 63:-0.00368761 64:0.143337 65:0.00484106 66:0.309487 67:0.434423 68:0.255603 69:-0.142974 70:0.193057 71:0.416588 72:0.443599 73:0.396388 74:0.516605 75:-0.154425 76:0.471624 77:0.130226 78:0.0709256 79:-0.400664 80:0.158503 81:0.0896335 82:-0.339554 83:0.128201 84:-0.1655 85:0.163049 86:0.187523 87:0.0819033 88:-0.181373 89:0.244147 90:0.108819 91:-0.0370602 92:0.0339337 93:0.0536286 94:0.209173 95:-0.304769 96:-0.158578 97:0.386369 98:0.465655 99:0.109133 100:-0.28039 101:0.259026 102:0.183772 103:0.0872754 104:0.304417 105:0.281785 106:-0.0416934 107:0.00937856 108:-0.0273556 
1 0 1:-0.868337 2:-0.947073 3:-0.965919 4:-0.203912 5:-0.0198217 6:-0.56528 7:-0.882686 8:-0.483964 9:-0.710974 10:-0.685254 11:-0.961237 12:-0.857212 13:-0.106806 14:0.524397 15:0.249806 16:0.412739 17:0.398834 18:0.07225 19:0.0110903 20:-0.0853779 21:-0.411484 22:0.0178547 23:-0.368422 24:0.00948052 25:-0.0610299 26:0.0381079 27:0.247182 28:-0.807816 29:0.32526 30:0.259358 31:0.162677 32:0.0581869 33:0.122683 34:0.334301 35:0.448037 36:0.307169 37:0.292938 38:0.530255 39:0.510548 40:0.465814 41:0.486279 42:0.367473 43:0.180968 44:-0.0639449 45:-0.21423 46:0.178977 47:0.158761 48:0.118569 49:-0.232328 50:0.19536 51:-0.0368593 52:-0.115764 53:-0.157243 54:-0.768974 55:-0.0601346 56:-0.191812 57:0.0370426 58:-0.0254445 59:0.173474 60:0.0284771 61:0.0985373 62:0.124724 63:0.385638 64:-0.155077 65:0.313935 66:0.34129 67:0.258332 68:-0.153035 69:0.258558 70:0.405955 71:0.440548 72:0.542159 73:0.33657 74:0.260744 75:-0.013078 76:0.514627 77:0.184859 78:0.0385052 79:-0.0806317 80:0.150445 81:-0.364943 82:0.0972289 83:-0.0934095 84:0.0951187 85:-0.341654 86:0.235044 87:-0.0903733 88:-0.175131 89:0.203948 90:0.144711 91:0.228627 92:0.185927 93:0.198613 94:0.297332 95:-0.0055622 96:0.261753 97:0.313157 98:-0.0801477 99:0.0743123 100:0.125535 101:0.286033 102:0.252217 103:0.094926 104:0.220042 105:0.0964035 106:-0.0782514 107:-0.214512 108:0.0165052 
1 1 1:-0.874585 2:-0.956306 3:-0.966627 4:-0.22917 5:0.137178 6:-0.384613 7:-0.92161 8:-0.781561 9:-0.784331 10:-0.691193 11:-0.932471 12:-0.980665 13:-0.104048 14:0.5281 15:0.24892 16:0.41188 17:0.26394 18:-0.154321 19:-0.0438587 20:0.118751 21:-0.105421 22:0.195994 23:-0.0183339 24:0.164625 25:0.0621184 26:0.0558332 27:0.242569 28:0.19021 29:0.370236 30:0.220727 31:0.285846 32:-0.0748655 33:-0.0159413 34:-0.028414 35:0.293173 36:0.246142 37:0.485121 38:0.673862 39:0.550389 40:0.350284 41:0.39934 42:0.0485209 43:0.144314 44:0.0383578 45:-0.070378 46:0.181244 47:0.187491 48:-0.04008 49:-0.195913 50:0.137933 51:-0.292928 52:-0.397596 53:-0.299182 54:0.0340069 55:-0.27778 56:-0.17244 57:-0.48045 58:-0.0512793 59:0.071965 60:0.0252652 61:0.132068 62:0.0294847 63:-0.0116621 64:-0.166173 65:0.265507 66:0.0616956 67:-0.0173033 68:0.317383 69:0.451702 70:0.379168 71:0.366268 72:0.371495 73:-0.0387237 74:0.0711969 75:-0.299116 76:0.396443 77:-0.168215 78:-0.0563132 79:0.00618042 80:0.143336 81:-0.0622101 82:0.0724197 83:-0.370468 84:0.0672503 85:0.141375 86:-0.191281 87:-0.0222668 88:-0.181896 89:0.0300792 90:0.0215748 91:0.00869977 92:-0.369678 93:0.0780069 94:0.0433392 95:-0.120385 96:0.0442819 97:0.21927 98:0.190206 99:0.177189 100:0.216042 101:0.251685 102:0.0886321 103:-0.151063 104:0.297574 105:0.0533265 106:0.0451653 107:0.138078 108:-0.147685 
0 1 1:-0.868409 2:-0.946688 3:-0.971425 4:-0.25362 5:0.387372 6:0.0102293 7:-0.908834 8:-0.568281 9:-0.695317 10:-0.64693 11:-0.984882 12:-0.93905 13:-0.109515 14:0.526982 15:0.248045 16:0.422973 17:0.331746 18:-0.0188288 19:-0.319056 20:-0.0593966 21:-0.146898 22:-0.0244539 23:-0.0419243 24:-0.136851 25:-0.0156389 26:-0.0725447 27:0.152934 28:-0.0258367 29:0.105209 30:0.185867 31:-0.0169803 32:0.167298 33:0.138414 34:0.0943541 35:0.429292 36:0.530661 37:0.0526444 38:0.518405 39:0.5038 40:0.433546 41:0.451173 42:0.322999 43:0.318583 44:0.0855698 45:0.146632 46:0.0328698 47:0.171453 48:0.125125 49:0.0589296 50:0.0773965 51:-0.122297 52:-0.220392 53:-0.185573 54:-0.0739044 55:-0.156017 56:-0.518092 57:-0.177219 58:0.0154029 59:-0.214168 60:-0.389409 61:0.201505 62:-0.0491143 63:0.341281 64:0.175376 65:-0.15835 66:0.274089 67:0.4015 68:-0.144773 69:-0.0430912 70:0.333803 71:0.416146 72:0.496152 73:0.43106 74:0.463356 75:0.129418 76:0.503071 77:-0.197678 78:0.060142 79:-0.312259 80:0.123518 81:-0.130521 82:0.0796706 83:-0.118611 84:0.0601629 85:0.11935 86:0.200147 87:0.100812 88:-0.12434 89:0.199067 90:-0.0627779 91:-0.180606 92:0.0345837 93:-0.0331718 94:-0.0145752 95:0.0311862 96:-0.319317 97:0.27772 98:0.26635 99:-0.0714379 100:-0.0221216 101:0.257404 102:0.1526 103:-0.0744015 104:0.172091 105:0.0590034 106:0.0598999 107:-0.0379702 108:-0.210654 
1 0 1:-0.865306 2:-0.954716 3:-0.9735 4:-0.280598 5:0.14134 6:-0.269313 7:-0.89353 8:-0.73646 9:-0.844417 10:-0.800528 11:-0.934028 12:-0.940388 13:-0.106929 14:0.526922 15:0.247333 16:0.422404 17:0.364939 18:0.126703 19:-0.364731 20:-0.174209 21:-0.0535487 22:0.0631562 23:-0.0306871 24:0.14321 25:-0.437776 26:0.178612 27:0.056914 28:0.224764 29:0.216587 30:0.305674 31:0.169479 32:0.232939 33:0.239751 34:0.177787 35:0.202985 36:0.420381 37:0.240866 38:0.480674 39:0.554813 40:0.443986 41:0.482419 42:0.256304 43:0.397318 44:0.195404 45:-0.0804392 46:-0.129379 47:0.168273 48:0.063247 49:-0.0919233 50:-0.00482284 51:-1 52:-0.120853 53:-0.440647 54:-0.412193 55:-0.169945 56:0.051371 57:-0.00426533 58:0.0610157 59:0.166984 60:0.169183 61:0.355008 62:-0.00348657 63:0.224424 64:0.171345 65:-0.0183687 66:0.0205824 67:0.320013 68:0.212178 69:0.0693844 70:0.423557 71:0.42892 72:0.459628 73:0.341586 74:0.533525 75:-0.0417069 76:-0.0821471 77:0.0758668 78:-0.023484 79:-0.0293253 80:-0.0696296 81:-0.0468191 82:-0.0770432 83:-0.131195 84:-0.173315 85:-0.0394919 86:-0.226486 87:0.0981157 88:0.0346198 89:0.269044 90:-0.580614 91:0.152311 92:0.0178051 93:0.00510628 94:-0.0153305 95:-0.0980784 96:-0.1543 97:0.118922 98:0.259462 99:-0.244723 100:-0.112694 101:0.220932 102:0.131719 103:-0.15579 104:0.279477 105:0.071343 106:0.128834 107:0.0978772 108:0.00835326 
1 1 1:-0.873619 2:-0.946012 3:-0.962129 4:-0.217916 5:0.00565321 6:-0.238975 7:-0.908449 8:-0.688273 9:-0.653823 10:-0.621818 11:-0.933726 12:-0.935763 13:-0.106642 14:0.526809 15:0.249334 16:0.411105 17:0.282688 18:0.0584203 19:-0.0998541 20:-0.154368 21:0.0888582 22:0.185377 23:-0.11483 24:-0.000212182 25:-0.0447031 26:-0.0549276 27:0.244804 28:0.136152 29:0.361156 30:0.267993 31:0.369044 32:0.324415 33:0.248319 34:0.458159 35:0.455689 36:0.268976 37:0.548367 38:0.71194 39:0.545204 40:0.266918 41:0.392718 42:0.26142 43:0.140387 44:0.0771347 45:0.0747161 46:0.159796 47:0.208308 48:-0.063186 49:-0.230602 50:0.236455 51:-0.362109 52:0.122095 53:-0.204663 54:-0.000489784 55:-0.0350307 56:0.0896145 57:-0.153835 58:-0.38702 59:-0.0367159 60:0.0889316 61:0.0860753 62:-0.0773763 63:-0.0347557 64:0.0645471 65:0.414721 66:0.291825 67:0.0580262 68:0.417816 69:0.469836 70:0.494757 71:0.345852 72:0.36233 73:0.177849 74:0.229548 75:0.140104 76:0.353995 77:0.177227 78:-0.0158313 79:-0.366832 80:0.184706 81:0.143145 82:-0.0686245 83:0.339652 84:-0.0714042 85:0.214938 86:0.176422 87:0.12692 88:-0.0302385 89:0.203776 90:-0.00260343 91:-0.00548401 92:-0.201912 93:-0.062365 94:0.322433 95:-0.202718 96:0.294473 97:0.348441 98:0.338306 99:0.128914 100:0.243439 101:0.281362 102:-0.12484 103:-0.0786384 104:0.349075 105:0.106952 106:-0.124256 107:0.00267431 108:0.020235 
1 1 1:-0.892789 2:-0.952436 3:-0.971433 4:-0.271228 5:0.0603261 6:-0.481766 7:-0.875707 8:-0.523395 9:-0.771316 10:-0.61583 11:-0.949782 12:-0.881689 13:-0.101858 14:0.528883 15:0.248457 16:0.366616 17:0.281139 18:0.0034509 19:-0.281335 20:-0.105287 21:0.0798478 22:-0.207613 23:0.0886695 24:-0.119698 25:0.0952062 26:0.143241 27:0.369861 28:0.316745 29:0.339478 30:0.476475 31:0.143611 32:0.325483 33:0.23735 34:0.380993 35:0.499325 36:0.569744 37:0.653298 38:0.697084 39:0.379625 40:0.0737267 41:0.333583 42:-0.1331 43:0.329028 44:-0.0708148 45:0.21463 46:0.20121 47:0.188731 48:0.0347073 49:-0.213583 50:0.156898 51:-0.594201 52:-0.118868 53:-0.283801 54:-0.311721 55:-0.16875 56:-0.0261542 57:-0.1173 58:-0.00350078 59:-0.252695 60:0.228887 61:0.295963 62:0.00611325 63:0.351778 64:0.260978 65:0.0848408 66:0.262828 67:0.491852 68:0.545975 69:0.369013 70:0.314 71:0.189928 72:-0.457126 73:0.0558047 74:0.12403 75:-0.333018 76:0.357283 77:0.0127617 78:-0.0383556 79:-0.105062 80:0.0738896 81:-0.282298 82:-0.241991 83:0.0552858 84:-0.186012 85:0.106688 86:-0.37699 87:0.138569 88:-0.308113 89:0.326587 90:-0.137412 91:0.126843 92:0.154204 93:-0.232614 94:0.257531 95:-0.093391 96:0.252294 97:0.451704 98:0.474042 99:0.264789 100:0.18876 101:0.356247 102:0.178517 103:-0.208074 104:0.0983899 105:-0.0815816 106:0.0851799 107:0.0683427 108:0.0157776 
1 1 1:-0.88745 2:-0.943891 3:-0.96867 4:-0.117511 5:0.45397 6:-0.249984 7:-0.903615 8:-0.597494 9:-0.882737 10:-0.738383 11:-0.948704 12:-0.89904 13:-0.109441 14:0.529078 15:0.248175 16:0.389479 17:0.0103895 18:0.163428 19:-0.385288 20:-0.23609 21:-0.012463 22:0.0533629 23:0.234219 24:-0.209177 25:-0.0582476 26:-0.179421 27:0.312988 28:-0.14107 29:0.35803 30:-0.010937 31:0.351867 32:0.310248 33:0.287038 34:0.287377 35:0.192458 36:0.433744 37:0.542607 38:0.675123 39:0.615327 40:0.370785 41:-0.0209952 42:-0.251409 43:0.153155 44:0.0260128 45:-0.0459648 46:0.236458 47:0.189727 48:0.0997443 49:0.088641 50:0.217811 51:-0.285481 52:-0.0994364 53:-0.295049 54:-0.267303 55:-0.13365 56:-0.69206 57:-0.235251 58:0.0112536 59:-0.0344767 60:0.143777 61:0.111025 62:0.0703225 63:0.0413012 64:0.262709 65:0.371527 66:0.0916871 67:0.343215 68:0.43045 69:0.429709 70:0.53116 71:0.366381 72:0.101537 73:-0.030059 74:0.231206 75:-0.269832 76:0.47355 77:0.0984705 78:0.11756 79:-0.0915561 80:0.12042 81:-0.00880086 82:-0.359787 83:0.129332 84:-0.842215 85:0.110055 86:-0.247638 87:-0.0930098 88:-0.390972 89:0.279506 90:-0.385041 91:-0.0996167 92:-0.0509313 93:0.166822 94:0.429651 95:0.0438561 96:-0.567088 97:-0.16135 98:-0.0296699 99:0.162386 100:0.0633666 101:0.345265 102:0.148452 103:-0.478498 104:-0.070828 105:-0.312055 106:0.112787 107:0.22829 108:-0.0537964 
1 0 1:-0.887492 2:-0.960618 3:-0.973949 4:-0.159793 5:0.135555 6:-0.464435 7:-0.894313 8:-0.787329 9:-0.605313 10:-0.750474 11:-0.979938 12:-0.88472 13:-0.102541 14:0.528938 15:0.244891 16:0.3841 17:0.310735 18:-0.0365681 19:-0.0351435 20:-0.0490729 21:-0.17815 22:0.152287 23:-0.156092 24:-0.0855154 25:-0.0298377 26:0.0631296 27:0.241624 28:0.198748 29:0.285527 30:0.108524 31:0.327456 32:0.182409 33:0.157107 34:0.130297 35:0.344737 36:0.426821 37:0.438893 38:0.63484 39:0.507723 40:0.398523 41:0.376954 42:0.181697 43:0.168065 44:-0.107837 45:0.0630866 46:-0.0218 47:0.170952 48:-0.068833 49:-0.145287 50:-0.151065 51:-0.694562 52:-0.284459 53:-0.16198 54:-0.174462 55:-0.219441 56:0.0211653 57:-0.0411149 58:-0.102732 59:0.061535 60:0.145046 61:-0.263899 62:0.0654588 63:0.00985776 64:-0.325021 65:0.0649532 66:0.152944 67:0.307117 68:0.375996 69:0.370535 70:0.398889 71:0.232681 72:0.25168 73:0.189773 74:0.392533 75:-0.0113296 76:0.251696 77:0.0487237 78:0.0389489 79:-0.282596 80:0.098139 81:-0.149524 82:-0.0382624 83:-0.0397017 84:0.0570403 85:0.147697 86:-0.059001 87:-0.177019 88:0.0923965 89:0.10201 90:0.0469278 91:0.00637409 92:0.0195979 93:-0.159758 94:0.0704618 95:-0.1356 96:0.0140043 97:0.153142 98:0.232173 99:0.148561 100:0.197067 101:0.344496 102:0.207049 103:-0.152 104:-0.0562531 105:-0.207935 106:-0.284315 107:0.0517608 108:-0.362871 
1 1 1:-0.895239 2:-0.949126 3:-0.967262 4:-0.243647 5:-0.104325 6:-0.354829 7:-0.879146 8:-0.635007 9:-0.783379 10:-0.670694 11:-0.931187 12:-0.941065 13:-0.107198 14:0.531249 15:0.249598 16:0.369807 17:0.00271473 18:0.190936 19:-0.216268 20:-0.0355861 21:-0.185447 22:-0.0354493 23:-0.101034 24:0.079482 25:0.00975635 26:-0.366067 27:0.304513 28:-0.0327025 29:0.451312 30:0.220122 31:0.350255 32:0.431256 33:0.0786503 34:0.466902 35:0.495168 36:0.59007 37:0.509698 38:0.515331 39:0.305157 40:0.138055 41:-0.81426 42:-0.260236 43:-0.543012 44:0.0109304 45:0.293831 46:0.373707 47:0.167017 48:0.0765317 49:-0.0699148 50:0.150789 51:-0.327273 52:0.046027 53:-0.0741757 54:0.0451726 55:-0.0855892 56:-0.0432746 57:-0.604386 58:-0.510413 59:-0.139873 60:0.200064 61:0.106099 62:0.232572 63:0.383452 64:-0.221075 65:0.430354 66:0.43318 67:0.429588 68:0.285023 69:0.0579285 70:0.217319 71:0.232415 72:0.167785 73:0.207529 74:0.204566 75:-0.112506 76:0.468457 77:0.230987 78:-0.327871 79:-0.30034 80:0.0122296 81:-0.0136151 82:0.0910207 83:0.297966 84:0.127382 85:0.313381 86:0.0643647 87:-0.128292 88:-0.387714 89:0.0421314 90:-0.118781 91:0.153552 92:-0.605845 93:-0.0165162 94:0.411318 95:-0.238518 96:0.28672 97:0.400331 98:0.501231 99:0.294347 100:0.0645181 101:0.116519 102:-0.175251 103:-0.515012 104:0.236138 105:-0.2946 106:-0.222507 107:0.0267369 108:-0.144209 
1 1 1:-0.874606 2:-0.958384 3:-0.978512 4:-0.252085 5:0.0522871 6:-0.378041 7:-0.901107 8:-0.77829 9:-0.892695 10:-0.748576 11:-0.958746 12:-0.962116 13:-0.111037 14:0.529553 15:0.248192 16:0.413657 17:0.224322 18:0.152309 19:-0.334685 20:-0.735023 21:-0.0544565 22:-0.14243 23:0.248249 24:-0.0635592 25:0.245774 26:0.131747 27:0.256246 28:0.0681307 29:0.233675 30:0.0126467 31:0.211466 32:0.24615 33:0.335953 34:0.188649 35:0.291089 36:0.215611 37:0.448756 38:0.630248 39:0.411162 40:0.334971 41:0.381353 42:-0.224338 43:0.0809636 44:-0.0635912 45:0.0486872 46:0.199795 47:0.139262 48:0.0389781 49:-0.257796 50:-0.0393614 51:-0.181157 52:-0.0822223 53:-0.350563 54:-0.0578408 55:-0.543321 56:-0.102207 57:0.0160236 58:-0.22758 59:0.128885 60:0.191813 61:0.27281 62:0.127297 63:0.252469 64:0.0973008 65:0.374639 66:0.037066 67:0.0812681 68:0.382282 69:0.3615 70:0.367332 71:0.393433 72:0.259955 73:-0.180306 74:-0.231604 75:-0.0318435 76:0.484255 77:0.0841524 78:0.0437648 79:-0.210607 80:-0.319591 81:-0.243362 82:-0.0737365 83:-0.229623 84:-0.223116 85:0.0910932 86:0.0733793 87:0.0158128 88:-0.239156 89:0.194362 90:-0.281598 91:-0.158067 92:-0.0771257 93:-0.121467 94:0.2508 95:0.103662 96:0.23678 97:0.0867306 98:-0.0323525 99:0.29442 100:0.171936 101:0.116389 102:0.167052 103:-0.0602429 104:0.0563594 105:0.223678 106:-0.00392211 107:0.118027 108:-0.0906496 
1 1 1:-0.886485 2:-0.951327 3:-0.976555 4:-0.238141 5:0.189441 6:-0.394253 7:-0.893466 8:-0.766289 9:-0.87365 10:-0.734002 11:-0.958784 12:-0.888225 13:-0.107126 14:0.529123 15:0.247364 16:0.390068 17:0.169563 18:0.0806531 19:-0.601042 20:-0.254465 21:0.0700091 22:0.0962848 23:0.0921865 24:0.154072 25:-0.164452 26:0.118886 27:0.209626 28:0.288626 29:0.34489 30:0.373376 31:0.422281 32:0.0873482 33:0.211836 34:0.172841 35:0.316276 36:0.0554801 37:0.528546 38:0.708911 39:0.57322 40:0.302484 41:0.299488 42:0.0563709 43:-0.149722 44:0.0369432 45:-0.0216399 46:0.134271 47:0.202179 48:0.0320158 49:-0.225106 50:0.0853089 51:-0.237907 52:-0.320518 53:-0.272109 54:-0.324078 55:-0.211528 56:-0.0998842 57:0.120744 58:0.00311931 59:-0.172546 60:0.0300606 61:-0.14085 62:0.223463 63:0.1425 64:0.384374 65:0.372881 66:0.0272112 67:0.265101 68:0.503184 69:0.466679 70:0.424305 71:0.313134 72:0.31369 73:0.200558 74:0.221569 75:-0.0655503 76:0.29869 77:-0.0590957 78:0.0433211 79:-0.377292 80:-0.0791168 81:0.0500809 82:-0.0773172 83:0.0790716 84:-0.239996 85:0.10926 86:0.145289 87:-0.189199 88:-0.0547765 89:0.197948 90:-0.297156 91:-0.324547 92:0.0222598 93:0.127511 94:0.302637 95:0.0968537 96:0.00143801 97:0.165579 98:-0.472039 99:-0.0369268 100:0.111658 101:0.182721 102:0.0209963 103:-0.107821 104:0.0842735 105:-0.0201139 106:-0.306634 107:-0.266827 108:-0.282086 
1 0 1:-0.896679 2:-0.962386 3:-0.976114 4:-0.387063 5:-0.0830717 6:-0.333961 7:-0.832878 8:-0.642657 9:-0.728415 10:-0.716244 11:-0.947432 12:-0.890862 13:-0.0962566 14:0.517906 15:0.245063 16:0.352377 17:0.286314 18:0.0810701 19:-0.0156857 20:0.0424366 21:0.02275 22:0.223858 23:0.187033 24:0.220647 25:-0.0209589 26:0.240275 27:-0.0886244 28:0.350264 29:0.130718 30:0.446077 31:0.316317 32:0.13507 33:-0.102934 34:0.366691 35:0.399603 36:0.255538 37:0.518722 38:0.694146 39:0.56648 40:0.365589 41:0.473156 42:0.413031 43:0.230177 44:0.012024 45:0.0283949 46:0.141314 47:0.0626481 48:0.0113626 49:-0.323075 50:0.0312982 51:-0.207064 52:-0.314971 53:-0.251177 54:-0.61771 55:-0.148567 56:-0.115616 57:0.0060692 58:-0.145034 59:0.0496252 60:0.18964 61:-0.0713157 62:0.201563 63:0.120585 64:0.128057 65:0.417816 66:0.0951415 67:-0.228473 68:0.345033 69:0.405036 70:0.48204 71:0.381782 72:0.44475 73:0.363461 74:0.408235 75:-0.16084 76:0.455641 77:-0.0580958 78:-0.0073012 79:-0.0896877 80:-0.27539 81:-0.267553 82:-0.180862 83:-0.351911 84:-0.0983731 85:0.0548894 86:0.142367 87:-0.134477 88:-0.111341 89:0.180147 90:0.100005 91:0.204868 92:-0.0572199 93:-0.133359 94:0.0150569 95:-0.00891555 96:0.192433 97:0.231874 98:0.208586 99:0.0660172 100:0.18884 101:0.36325 102:0.218198 103:-0.0765235 104:0.29806 105:0.210985 106:-0.131764 107:-0.280778 108:-0.110464 
1 1 1:-0.886658 2:-0.951745 3:-0.967536 4:-0.296974 5:0.216515 6:-0.240944 7:-0.892004 8:-0.712169 9:-0.83154 10:-0.64962 11:-0.949483 12:-0.912891 13:-0.109819 14:0.531947 15:0.245959 16:0.380605 17:0.348278 18:-0.000427453 19:-0.0126122 20:-0.389085 21:-0.366596 22:0.0930662 23:0.1209 24:-0.12043 25:0.0617332 26:-0.032338 27:0.145448 28:0.243575 29:0.0963498 30:0.438023 31:0.131187 32:0.0499926 33:-0.0208676 34:0.179239 35:0.210077 36:0.547183 37:0.659749 38:0.558769 39:0.453426 40:0.364819 41:0.408833 42:-0.245934 43:0.125831 44:-0.160105 45:-0.130589 46:0.0338953 47:0.151245 48:-0.0689498 49:-0.0384326 50:0.146986 51:-0.111081 52:-0.0959568 53:-0.211174 54:0.0396924 55:-0.1685 56:0.00131371 57:-0.228186 58:-0.453667 59:0.0530651 60:0.00332083 61:0.308042 62:0.0625365 63:0.176465 64:0.319708 65:0.377238 66:-0.564754 67:0.464678 68:0.539441 69:0.328233 70:0.366495 71:0.384692 72:0.36649 73:-0.0171033 74:0.337068 75:-0.391794 76:0.431279 77:-0.0711208 78:0.0757266 79:-0.165521 80:0.0548674 81:0.0586462 82:-0.0152049 83:0.0908561 84:0.071112 85:0.284639 86:-0.148851 87:0.1812 88:-0.554995 89:0.177256 90:0.123766 91:0.019596 92:0.0338379 93:0.0101555 94:0.372783 95:0.0538141 96:0.111435 97:0.0457846 98:0.287412 99:0.130166 100:-0.312364 101:0.0529165 102:0.155429 103:-0.12841 104:0.0227372 105:-0.0351804 106:-0.285093 107:0.177114 108:-0.0273132 
1 1 1:-0.87514 2:-0.942185 3:-0.953785 4:-0.183224 5:0.148314 6:-0.250084 7:-0.908906 8:-0.739355 9:-0.835181 10:-0.604591 11:-0.933291 12:-0.826139 13:-0.111116 14:0.524008 15:0.249123 16:0.403674 17:0.24466 18:0.144562 19:0.15277 20:0.0556359 21:0.0182278 22:0.190367 23:0.120187 24:0.130264 25:0.137644 26:-0.0529113 27:0.11293 28:0.265921 29:0.347521 30:0.387387 31:0.430501 32:-0.100189 33:0.344385 34:0.356157 35:0.269907 36:0.281502 37:0.512699 38:0.636994 39:0.565297 40:0.514355 41:0.496943 42:0.168006 43:0.052993 44:0.144734 45:0.121567 46:0.206491 47:0.141269 48:0.110013 49:0.148703 50:0.139752 51:-0.183763 52:0.0267729 53:-0.431776 54:-0.219595 55:-0.030976 56:-0.14047 57:-0.245483 58:-0.139929 59:0.0230277 60:0.0396448 61:0.193742 62:0.285294 63:-0.0614645 64:0.232065 65:0.343903 66:-0.140585 67:0.308585 68:0.464972 69:0.394022 70:0.454181 71:0.507398 72:0.513039 73:0.182503 74:0.217179 75:0.13683 76:0.422269 77:-0.0438376 78:0.135039 79:-0.137095 80:0.244179 81:0.237376 82:-0.0738854 83:0.172813 84:-0.00303951 85:-0.159316 86:0.250145 87:-0.0947575 88:-0.20279 89:0.0785865 90:0.156703 91:-0.0160644 92:0.135174 93:0.273027 94:0.421284 95:0.0583411 96:-0.00625063 97:0.0464486 98:0.209078 99:0.25495 100:0.228687 101:0.331963 102:0.315492 103:-0.00650441 104:0.163795 105:-0.447186 106:-0.262201 107:0.0821333 108:0.0711034 
0.8078123846663472 0.6206338704747902 1:-0.855373 2:-0.948889 3:-0.972622 4:-0.295129 5:0.395743 6:-0.441374 7:-0.90435 8:-0.594984 9:-0.72162 10:-0.762632 11:-0.936183 12:-0.920452 13:-0.115167 14:0.530634 15:0.248296 16:0.443588 17:0.301873 18:0.136811 19:-0.118545 20:-0.131048 21:-0.177226 22:0.0251653 23:0.107257 24:-0.0555209 25:0.0905466 26:-0.0323494 27:0.316118 28:-0.0499441 29:0.276423 30:-0.135348 31:0.245881 32:0.254116 33:0.22409 34:0.362918 35:0.10313 36:0.483247 37:0.412908 38:0.225265 39:0.212002 40:0.522747 41:0.635176 42:0.425531 43:0.332614 44:0.184827 45:0.13619 46:-0.0345871 47:0.20564 48:-0.0401359 49:-0.0461545 50:0.131814 51:-0.221751 52:-0.0574895 53:-0.276033 54:-0.149781 55:-0.238625 56:-0.331564 57:-0.180839 58:-0.289538 59:-0.147577 60:0.184556 61:0.240805 62:0.221535 63:0.307652 64:0.275024 65:0.319072 66:-0.258519 67:0.29157 68:0.291488 69:-0.602284 70:0.20162 71:0.50518 72:0.610806 73:0.437 74:0.522849 75:0.110973 76:0.351907 77:0.234873 78:-0.104946 79:-0.232396 80:0.179836 81:-0.0838528 82:0.028104 83:0.0301251 84:-0.0594352 85:-0.0916008 86:-0.0707478 87:0.0680947 88:-0.649179 89:0.114603 90:-0.051078 91:0.0935943 92:0.0935828 93:0.0156293 94:0.422705 95:-0.0422158 96:0.194687 97:0.0951719 98:0.203337 99:0.00644463 100:-0.270301 101:0.141077 102:0.138629 103:0.139346 104:0.311058 105:-0.0152716 106:-0.0772213 107:-0.0845241 108:-0.510736 
1 0 1:-0.868387 2:-0.940585 3:-0.967376 4:-0.207479 5:0.164736 6:-0.270425 7:-0.904801 8:-0.764577 9:-0.873341 10:-0.72335 11:-0.927927 12:-0.908655 13:-0.111177 14:0.530798 15:0.247512 16:0.421992 17:0.286868 18:0.0911674 19:-0.252526 20:-0.10236 21:-0.0817827 22:-0.343292 23:-0.124074 24:0.111094 25:0.0248235 26:0.180822 27:-0.0337541 28:0.24947 29:0.023981 30:0.342034 31:0.292792 32:0.105773 33:0.329182 34:0.0672138 35:0.270143 36:0.568033 37:0.507912 38:0.127034 39:0.383175 40:0.449986 41:0.593387 42:0.496396 43:0.422282 44:0.0881305 45:-0.00394779 46:0.294018 47:0.231159 48:0.0311017 49:0.0991646 50:0.251878 51:-0.461919 52:-0.0197795 53:-0.734073 54:-0.217689 55:-0.456249 56:-0.34031 57:-0.175379 58:-0.604872 59:0.119688 60:-0.205347 61:0.273524 62:0.110468 63:0.0448769 64:0.302416 65:0.277078 66:0.153445 67:0.450524 68:0.327965 69:-0.180976 70:0.251362 71:0.446692 72:0.576954 73:0.418639 74:0.446549 75:-0.0993686 76:0.454979 77:0.112375 78:0.07625 79:-0.310331 80:0.0565399 81:0.0330712 82:0.0786697 83:0.0950891 84:-0.228978 85:0.232784 86:0.252344 87:0.108894 88:-0.194696 89:0.217007 90:0.0793647 91:-0.113097 92:0.234128 93:0.185378 94:0.403979 95:0.268254 96:0.0908473 97:0.197728 98:0.351555 99:-0.284266 100:-0.281273 101:0.053379 102:0.0957728 103:0.0619036 104:0.409672 105:0.24586 106:0.0936422 107:0.0305142 108:0.170304 
0 1 1:-0.87001 2:-0.953649 3:-0.972975 4:-0.104657 5:0.022995 6:-0.000440734 7:-0.908915 8:-0.77113 9:-0.761117 10:-0.815862 11:-0.908591 12:-0.948084 13:-0.111758 14:0.525282 15:0.250363 16:0.420912 17:0.250479 18:0.180505 19:-0.153002 20:-0.142285 21:-0.311791 22:0.125694 23:-0.212273 24:0.138278 25:-0.201159 26:0.0856223 27:-0.205438 28:0.18744 29:0.240043 30:0.287997 31:0.325939 32:0.129875 33:-0.0625049 34:0.277789 35:0.223961 36:0.407251 37:0.505288 38:0.56261 39:0.450608 40:0.42178 41:0.322258 42:-0.123593 43:0.0761219 44:-0.112807 45:-0.231175 46:0.0650848 47:0.173027 48:-0.00734568 49:-0.283871 50:0.287185 51:-0.325507 52:-0.0499434 53:-0.638063 54:-0.140667 55:-0.225632 56:-0.543944 57:-0.0799795 58:-0.0310903 59:0.0360928 60:0.0317018 61:0.129193 62:0.151642 63:0.0331424 64:0.140253 65:0.153179 66:-0.281388 67:0.231123 68:0.389917 69:0.308457 70:0.325817 71:0.403348 72:0.330194 73:-0.0159701 74:0.252468 75:-0.0429189 76:0.393392 77:-0.1763 78:0.037538 79:-0.337882 80:0.178311 81:0.0548891 82:-0.250815 83:0.0614557 84:-0.0241929 85:-0.201605 86:0.0213956 87:-0.0649273 88:-0.104576 89:0.0989144 90:-0.163954 91:-0.0744075 92:-0.248601 93:-0.000937629 94:0.211576 95:-0.0602438 96:-0.0398812 97:0.0524921 98:-0.4469 99:0.177147 100:-0.192866 101:0.116493 102:-0.236774 103:-0.382298 104:-0.0513725 105:-0.0972238 106:-0.210588 107:-0.0178513 108:-0.303094 
0 1 1:-0.869605 2:-0.953093 3:-0.959622 4:-0.158947 5:0.395581 6:-0.22129 7:-0.892693 8:-0.613813 9:-0.736347 10:-0.708686 11:-0.934554 12:-0.991217 13:-0.106536 14:0.528911 15:0.250062 16:0.403502 17:0.44378 18:-0.186015 19:0.0139557 20:-0.104058 21:-0.0446064 22:0.0495849 23:-0.139073 24:-0.456095 25:-0.118425 26:0.147701 27:0.122475 28:0.0873652 29:0.254985 30:0.315907 31:0.324122 32:0.289503 33:-0.0177431 34:0.234382 35:0.344702 36:0.340801 37:0.389932 38:0.434889 39:0.467015 40:0.429663 41:0.509366 42:0.223055 43:0.209688 44:-0.0458892 45:0.0816205 46:-0.393277 47:0.174653 48:-0.024632 49:0.0601059 50:0.00720411 51:-0.454916 52:-0.307507 53:-0.124306 54:-0.134148 55:0.0283402 56:-0.22962 57:0.0283249 58:0.0140237 59:-0.104293 60:-0.842946 61:0.138974 62:-0.190317 63:0.277927 64:0.0972798 65:0.196526 66:0.256825 67:0.26121 68:0.306284 69:0.164715 70:0.391721 71:0.440378 72:0.500065 73:0.28695 74:0.290645 75:-0.0993128 76:0.315729 77:-0.0932512 78:0.126434 79:-0.146302 80:0.150712 81:0.209958 82:0.0124344 83:0.245335 84:0.111173 85:-0.208272 86:0.228382 87:-0.111453 88:0.0780539 89:0.156136 90:-0.159595 91:-0.0555364 92:-0.182061 93:-0.080522 94:0.428093 95:-0.368607 96:-0.164569 97:0.171906 98:-0.121435 99:-0.0473609 100:-0.251297 101:-0.127 102:0.244985 103:-0.229436 104:0.30024 105:0.0973893 106:-0.264452 107:-0.142096 108:-0.135047 
1 1 1:-0.882725 2:-0.951985 3:-0.975182 4:-0.121813 5:-0.05603 6:-0.183806 7:-0.915164 8:-0.593717 9:-0.671493 10:-0.722021 11:-0.92112 12:-0.976171 13:-0.107621 14:0.524973 15:0.248785 16:0.394971 17:0.238212 18:0.187772 19:-0.239399 20:-0.0547281 21:-0.0728744 22:0.0416757 23:-0.00680817 24:-0.00824433 25:-0.0841749 26:0.151272 27:0.00315163 28:0.24965 29:0.0549487 30:0.274857 31:0.303394 32:0.135428 33:0.296281 34:0.459778 35:0.423248 36:0.0700417 37:0.32561 38:0.539428 39:0.52537 40:0.360297 41:0.404784 42:0.275081 43:0.0747316 44:0.159829 45:0.256349 46:0.0703541 47:0.159131 48:0.109596 49:-0.357119 50:0.205382 51:-0.604717 52:-0.0810625 53:-0.284029 54:-0.141111 55:0.0139602 56:-0.216191 57:0.0384785 58:-0.0575531 59:-0.00875548 60:0.0599673 61:0.193255 62:0.138542 63:0.154616 64:0.128933 65:0.442476 66:0.269265 67:0.228275 68:0.0638938 69:0.194929 70:0.468757 71:0.430979 72:0.418646 73:0.283658 74:0.417955 75:-0.20113 76:0.429857 77:0.00335623 78:0.0383207 79:-0.296236 80:0.0126775 81:0.0935658 82:-0.147223 83:-0.105296 84:-0.0400523 85:-0.0423515 86:0.233841 87:-0.170225 88:-0.00565229 89:-0.139365 90:-0.143467 91:-0.17734 92:-0.0181267 93:0.0657037 94:0.271137 95:0.111033 96:0.148346 97:0.0825746 98:-0.00314242 99:-0.243963 100:-0.287357 101:0.15985 102:0.0535308 103:0.0642527 104:0.220719 105:-0.222152 106:-0.301109 107:-0.0464984 108:-0.0790293 
1 1 1:-0.860706 2:-0.952567 3:-0.97024 4:-0.271504 5:0.248212 6:-0.296963 7:-0.902263 8:-0.741368 9:-0.83307 10:-0.805317 11:-0.929897 12:-0.894391 13:-0.110262 14:0.529349 15:0.247921 16:0.431234 17:0.362824 18:-0.120766 19:-0.282732 20:-0.0957016 21:-0.0794847 22:-0.131754 23:-0.100854 24:0.0561113 25:0.132018 26:0.209746 27:0.304832 28:0.261144 29:0.197552 30:0.326523 31:0.328276 32:0.288929 33:0.18948 34:0.43681 35:0.330819 36:0.412289 37:0.543331 38:0.499349 39:-0.445287 40:0.289694 41:0.583531 42:0.49693 43:0.373176 44:0.261864 45:0.412183 46:0.151259 47:0.183847 48:0.0028362 49:-0.0609154 50:-0.198038 51:-0.291654 52:-0.0892431 53:-0.678485 54:-0.115682 55:-0.066926 56:-0.222549 57:0.0672559 58:0.0126445 59:0.210573 60:0.308209 61:-0.0689661 62:-0.0843696 63:0.22472 64:0.0237399 65:0.323924 66:0.0470607 67:0.327341 68:0.358356 69:0.137552 70:-0.0508649 71:0.256789 72:0.496301 73:0.455838 74:0.604354 75:0.282363 76:0.649049 77:0.087032 78:0.119319 79:-0.26511 80:0.103828 81:-0.142185 82:-0.206082 83:0.131777 84:-0.292197 85:0.0596384 86:0.19809 87:0.0933259 88:-0.097632 89:0.154308 90:0.10681 91:-0.0116356 92:-0.255177 93:-0.000709557 94:0.257627 95:-0.154991 96:-0.261334 97:-0.157728 98:0.327828 99:0.302904 100:-0.0178776 101:0.114754 102:0.132723 103:0.100036 104:0.334763 105:0.178176 106:0.160204 107:0.289448 108:0.13338 
1 1 1:-0.879851 2:-0.955467 3:-0.964166 4:-0.251069 5:0.259268 6:-0.360132 7:-0.909404 8:-0.670274 9:-0.807622 10:-0.651188 11:-0.927566 12:-0.86797 13:-0.111853 14:0.529004 15:0.247049 16:0.404719 17:0.111117 18:0.0743924 19:-0.0781075 20:-0.238125 21:-0.0208719 22:0.137877 23:0.0803886 24:0.0639159 25:0.0069068 26:-0.0158828 27:0.164489 28:0.177128 29:0.274843 30:0.217351 31:0.393378 32:0.153334 33:0.415341 34:0.0542627 35:0.477691 36:0.667899 37:0.666233 38:0.650679 39:0.460296 40:0.0491569 41:-0.00135073 42:-0.0460238 43:0.148765 44:-0.231948 45:0.118274 46:-0.253402 47:0.148561 48:-0.157489 49:-0.0862631 50:0.136165 51:-0.615968 52:-0.0509668 53:-0.35076 54:-0.0634403 55:-0.217082 56:-0.395738 57:0.0933124 58:-0.140873 59:-0.231524 60:-0.0107062 61:0.152176 62:0.133417 63:0.144607 64:0.381731 65:0.288928 66:0.0498595 67:0.520849 68:0.538333 69:0.432269 70:0.422739 71:0.123918 72:0.159458 73:0.194554 74:0.211084 75:0.0957743 76:0.502302 77:-0.084639 78:0.0686921 79:-0.120884 80:0.144775 81:0.0785493 82:0.10131 83:0.164184 84:0.0130433 85:0.180224 86:0.0530327 87:-0.0913456 88:-0.0952898 89:0.159698 90:-0.182974 91:-0.0622335 92:-0.0453065 93:-0.108803 94:0.322493 95:0.291975 96:0.17251 97:0.367328 98:0.427483 99:0.325589 100:0.0220782 101:0.124642 102:0.17148 103:-0.16574 104:0.18812 105:-0.044865 106:-0.076008 107:-0.0174878 108:-0.129347 
0 1 1:-0.875784 2:-0.962383 3:-0.96932 4:-0.249748 5:-0.219106 6:-0.224577 7:-0.913129 8:-0.564101 9:-0.737929 10:-0.788976 11:-0.93997 12:-0.935419 13:-0.110714 14:0.525408 15:0.245979 16:0.411831 17:0.21633 18:0.121126 19:-0.371609 20:-0.126831 21:0.0511315 22:-0.0146164 23:-0.096542 24:0.0554102 25:0.0380317 26:0.0762812 27:0.232335 28:0.0341489 29:0.0485452 30:0.234861 31:0.369161 32:0.1386 33:0.288356 34:0.439857 35:0.470909 36:0.595498 37:0.577335 38:0.567475 39:0.341047 40:0.0181542 41:0.331892 42:0.0176321 43:-0.0921469 44:-0.0550382 45:0.281149 46:0.351542 47:-0.0145759 48:-0.00899103 49:-0.0911517 50:0.185755 51:-0.265107 52:-0.153276 53:-0.111394 54:-0.568825 55:-0.0946657 56:-0.385605 57:-0.176586 58:-0.280054 59:-0.067558 60:0.0703722 61:-0.0108685 62:0.257731 63:0.200691 64:-0.0382979 65:0.316705 66:0.283635 67:0.504096 68:0.513657 69:0.250897 70:0.165477 71:0.107604 72:0.226493 73:-0.0937294 74:-0.0385749 75:-0.148463 76:0.260063 77:0.128107 78:0.0422094 79:-0.025799 80:0.172774 81:-0.238227 82:-0.197294 83:0.14369 84:-0.173413 85:-0.225096 86:0.0156348 87:-0.290046 88:-0.126517 89:0.00654829 90:-0.630118 91:-0.0674663 92:-0.535987 93:-0.010504 94:-0.014373 95:-0.0303697 96:-0.112273 97:0.213823 98:0.342166 99:0.241283 100:-0.099426 101:0.193202 102:0.0407092 103:-0.540831 104:-0.135993 105:-0.35134 106:-0.154717 107:0.0872046 108:-0.178265 
1 1 1:-0.899327 2:-0.956132 3:-0.960687 4:-0.17829 5:0.147273 6:-0.390096 7:-0.91598 8:-0.743462 9:-0.88168 10:-0.692211 11:-0.913481 12:-0.940804 13:-0.110837 14:0.530315 15:0.247477 16:0.357202 17:0.219854 18:0.0525819 19:0.0476278 20:-0.0296715 21:-0.0240891 22:0.130164 23:0.19699 24:0.112047 25:-0.00986642 26:0.0409045 27:0.247909 28:0.16746 29:0.368253 30:0.415198 31:-0.0682509 32:0.377481 33:0.236065 34:-0.187006 35:-1 36:0.412428 37:0.571613 38:0.677476 39:0.499484 40:0.275365 41:0.373592 42:0.00057272 43:0.0685911 44:-0.0487642 45:-0.292968 46:0.117932 47:0.173491 48:-0.377956 49:-0.167125 50:0.180716 51:-0.301507 52:-0.185452 53:-0.304751 54:-0.539067 55:-0.192536 56:-0.297687 57:-0.146421 58:-0.252329 59:-0.547967 60:0.0532295 61:0.356935 62:-0.692544 63:0.249565 64:0.310897 65:0.300339 66:0.143414 67:0.399397 68:0.514097 69:0.448019 70:0.429101 71:0.325352 72:0.178913 73:0.203849 74:0.0026378 75:-0.140947 76:0.131655 77:-0.452718 78:0.143848 79:-0.0657004 80:0.169372 81:0.0975645 82:-0.00682193 83:0.233361 84:-0.0926722 85:0.110614 86:0.0789623 87:-0.21044 88:-0.242098 89:0.204484 90:-0.47136 91:-0.267023 92:-0.17036 93:0.111838 94:0.428753 95:0.279393 96:0.149495 97:-0.0406694 98:0.219931 99:0.229798 100:0.221582 101:0.30011 102:0.150447 103:-0.16789 104:0.179857 105:0.0718826 106:-0.102578 107:-0.364957 108:-0.156904 
0.5030794263864247 0 1:-0.869324 2:-0.952159 3:-0.981372 4:-0.248519 5:0.188493 6:-0.437546 7:-0.898218 8:-0.738968 9:-0.73946 10:-0.678391 11:-0.929784 12:-0.943279 13:-0.107431 14:0.530004 15:0.247524 16:0.413333 17:0.387166 18:-0.230183 19:-0.366556 20:-0.166829 21:-0.0636995 22:0.0303417 23:0.0909234 24:0.190561 25:0.0242304 26:0.149478 27:-0.0134797 28:0.243022 29:0.242423 30:0.337152 31:0.423201 32:-0.123106 33:0.335398 34:0.400539 35:0.392885 36:0.188309 37:0.434112 38:0.598597 39:0.527184 40:0.425162 41:0.480633 42:0.308597 43:0.259727 44:-0.683858 45:-0.119856 46:0.230676 47:0.207057 48:0.0637142 49:-0.411482 50:-0.0944372 51:-0.276209 52:-0.324325 53:-0.20932 54:-0.253847 55:-0.29725 56:-0.0676091 57:-0.0786643 58:0.0715151 59:-0.137063 60:-0.153226 61:0.189912 62:0.272201 63:-0.0731397 64:0.251284 65:0.333669 66:0.0852204 67:0.0435975 68:0.400307 69:0.365611 70:0.433217 71:0.414052 72:0.41615 73:0.390697 74:0.449704 75:-0.0984073 76:0.294533 77:-0.0605355 78:-0.147652 79:-0.18298 80:-0.161138 81:-0.0873502 82:-0.209544 83:-0.142817 84:-0.011439 85:-0.0135701 86:0.109473 87:-0.506988 88:-0.829019 89:0.33731 90:0.00851243 91:0.0995306 92:-0.182896 93:0.00270519 94:0.132016 95:-0.0251793 96:0.080037 97:0.0653539 98:0.0161162 99:-0.0683386 100:-0.227506 101:-0.0629936 102:0.084934 103:-0.243374 104:-0.00443339 105:0.21018 106:0.181989 107:-0.0339834 108:-0.582874 
0 1 1:-0.860173 2:-0.968536 3:-0.965972 4:-0.300954 5:0.129656 6:-0.309738 7:-0.854879 8:-0.536872 9:-0.770384 10:-0.779517 11:-0.961434 12:-0.916938 13:-0.107779 14:0.527137 15:0.248895 16:0.406192 17:0.503238 18:-0.0357392 19:0.117927 20:-0.325118 21:-0.0614072 22:0.0927963 23:0.176563 24:-0.158801 25:-0.0367721 26:-0.110798 27:-0.57452 28:-0.0288389 29:-0.180942 30:0.0135046 31:0.186905 32:0.157567 33:0.0963689 34:0.138267 35:0.287506 36:0.305808 37:0.25199 38:0.50364 39:0.509616 40:0.388826 41:0.428928 42:0.127304 43:0.0512612 44:-0.344421 45:-0.229267 46:-0.0694337 47:0.0409653 48:-0.358491 49:-0.0636411 50:-0.00783208 51:-0.280031 52:0.0273324 53:-0.312654 54:-0.335946 55:-0.19532 56:-0.105029 57:-0.0797442 58:-0.129946 59:-0.191322 60:-0.427445 61:-0.153104 62:-0.262735 63:-0.0432174 64:-0.0782149 65:0.0392689 66:-0.412042 67:0.242791 68:0.339484 69:0.257456 70:0.411708 71:0.397727 72:0.330766 73:0.197642 74:0.257792 75:-0.173567 76:0.24871 77:-0.0221405 78:-0.0434757 79:-0.0252212 80:0.0972527 81:0.0286496 82:0.0278061 83:0.291911 84:-0.0668206 85:-0.0281215 86:0.239477 87:0.12902 88:-0.266953 89:0.260726 90:0.0924827 91:-0.194151 92:0.00297664 93:-0.011657 94:0.148286 95:-0.162492 96:-0.422312 97:-0.15664 98:-0.475694 99:-0.163723 100:0.0151183 101:0.21535 102:0.183444 103:-0.281215 104:0.0847319 105:-0.616508 106:-0.171016 107:0.156589 108:0.152121 
